2458 100
sent_0 0.001591 0.017991 0.001900 0.029580 0.008011 0.006375 -0.017918 0.032839 -0.012431 0.011653 -0.019121 0.014369 0.014708 0.011758 -0.004125 -0.006952 -0.018461 0.003205 -0.028269 -0.048351 0.021124 -0.029345 -0.015174 0.025570 0.011865 0.026117 -0.041647 0.015939 -0.004474 0.004301 -0.011684 -0.012307 -0.008807 -0.018749 0.023139 -0.022098 -0.025416 0.004691 -0.031618 -0.018763 -0.008045 -0.003425 0.046390 -0.004472 0.021596 -0.002587 -0.004541 0.018135 -0.004820 0.011289 -0.033530 0.020046 0.016882 -0.048126 -0.025680 0.005167 0.008605 -0.033551 0.014142 -0.004911 0.012634 -0.031135 0.043599 -0.021513 0.028695 -0.000624 0.001727 0.003950 -0.011853 -0.010808 -0.018020 -0.000846 0.037466 -0.018523 0.010182 0.007867 0.003530 -0.017166 -0.009738 -0.018675 0.032243 0.011380 0.015497 0.027216 0.038595 0.038250 -0.023473 0.023016 -0.012340 0.006476 0.035530 0.027993 0.015870 -0.027869 -0.009453 -0.048753 -0.000174 -0.024236 0.008397 -0.018187
sent_1 -0.005688 -0.032555 0.023098 0.011484 -0.011047 0.001014 -0.035760 0.001622 -0.002461 0.014121 -0.026184 -0.001262 0.022053 0.001576 0.008725 0.012514 -0.018524 -0.024852 -0.025358 0.022806 0.007280 -0.023124 0.014478 0.047274 0.008198 0.019167 -0.016308 0.013860 0.011502 -0.022181 -0.031403 -0.014581 0.008489 0.000288 -0.007903 -0.017163 -0.030525 0.010357 -0.005415 0.025123 0.005729 -0.001899 0.040394 -0.026557 0.024997 -0.007417 -0.000945 0.029444 -0.022032 -0.009813 -0.047446 0.042612 -0.008166 -0.036561 0.004601 0.025180 -0.005182 -0.006573 -0.001054 -0.015376 0.018610 -0.009077 0.011865 -0.015265 -0.004086 0.014520 -0.009145 0.017082 0.021903 -0.001287 0.033114 -0.015542 0.001312 -0.004395 -0.004226 0.017935 -0.023323 0.003211 -0.002748 0.029891 0.024148 0.022728 -0.000711 0.027081 0.024909 0.028326 -0.026964 0.038767 -0.014657 0.014388 0.040250 0.000888 0.018334 -0.019620 0.016107 -0.017461 -0.014073 -0.013880 -0.009827 -0.016171
sent_2 0.008660 -0.015317 0.014239 0.025175 0.000216 0.012080 -0.037020 0.024347 0.003275 0.025548 -0.017081 0.015103 0.008061 0.004096 0.000713 0.020940 -0.044043 -0.018160 -0.023974 -0.005260 0.013638 -0.020111 0.003005 0.046931 0.013556 0.015895 -0.022077 0.012289 0.010858 -0.010186 -0.012918 -0.003961 0.004368 -0.004181 0.004814 -0.018872 -0.048076 0.007854 -0.016240 0.019136 -0.005346 0.011446 0.049473 -0.018638 0.037158 -0.002162 -0.012052 0.010548 -0.019862 -0.004673 -0.047727 0.036102 0.008162 -0.042074 -0.008306 0.022026 -0.000755 -0.016342 0.006572 -0.019308 0.013342 -0.014609 0.018256 -0.004095 0.022131 0.000099 -0.005934 0.010122 0.008406 -0.007882 0.012246 -0.005691 0.014698 -0.008804 -0.005000 0.010639 -0.018901 -0.001863 0.007435 0.010248 0.036990 0.016109 0.005476 0.033408 0.046193 0.039089 -0.018952 0.034639 -0.014217 0.006042 0.035548 0.009249 0.007255 -0.026413 0.012049 -0.043407 -0.012355 -0.025273 -0.009769 -0.039936
sent_3 0.009572 -0.021839 -0.021123 0.043577 -0.049760 -0.037060 -0.061144 -0.007126 0.008739 0.036690 -0.026411 0.019696 -0.016640 0.002395 0.028847 0.060078 -0.031016 -0.019205 -0.033321 0.039409 0.024034 -0.018848 0.024283 0.059393 0.013810 -0.020668 0.008579 0.027339 0.066391 -0.037766 0.012191 0.031367 0.016475 -0.016025 0.018723 -0.038426 -0.031698 0.027337 -0.007568 0.009452 0.003486 0.019001 0.056795 -0.041420 0.034502 -0.008014 0.044027 0.020074 -0.016073 -0.022757 -0.060268 0.052196 -0.021922 -0.057595 0.004859 0.034161 0.000331 -0.025997 0.003538 -0.029916 0.015717 -0.040309 -0.035337 0.015301 0.024055 0.012775 -0.027853 0.020367 0.062046 -0.009802 0.051538 -0.049592 -0.011737 0.037337 -0.021297 0.017217 -0.041965 0.014255 0.052949 0.030665 0.071354 0.019624 0.019508 0.005726 0.014315 0.026836 -0.006782 -0.003106 -0.007590 0.023318 0.035820 -0.023881 -0.010575 -0.030944 0.042703 -0.047685 -0.043480 -0.017828 -0.027929 -0.001419
sent_4 0.001305 0.031586 -0.022652 -0.000950 -0.032396 0.029011 -0.072567 0.064726 0.037651 0.033285 -0.112663 -0.008339 -0.058308 -0.037674 0.008032 0.070028 -0.058401 0.040623 -0.066710 -0.107545 -0.024482 -0.099036 -0.017598 0.025805 0.027942 -0.013459 -0.096753 -0.045859 0.090857 -0.001787 0.075749 0.084422 -0.019006 -0.059522 0.018413 -0.039926 -0.017471 -0.036081 -0.027112 -0.075210 0.033869 -0.011204 0.021207 0.011560 0.026934 0.026161 0.030804 0.050615 -0.067210 -0.048346 -0.054618 -0.017026 -0.018023 -0.087827 -0.021978 0.044996 -0.001226 -0.074234 -0.010351 -0.091247 -0.020097 -0.008313 -0.044462 0.123202 0.071160 0.015025 0.000004 -0.047101 0.031659 -0.020972 0.021897 -0.106885 0.035121 0.009947 -0.089544 0.145616 -0.087914 0.003923 0.004206 0.024181 0.097525 0.044283 0.040071 0.032716 0.086154 0.061263 -0.040496 -0.020668 -0.016978 0.141080 0.119281 0.079624 -0.022517 -0.098438 0.008132 0.036131 -0.017595 -0.131862 -0.024717 0.010579
sent_5 -0.037293 0.069213 -0.006623 0.008426 0.001771 -0.119382 0.097093 -0.028585 -0.013858 -0.022507 0.050214 -0.058863 0.022041 0.056262 -0.041030 0.001661 -0.077102 -0.051983 0.068104 0.011331 -0.032625 0.025671 0.018912 -0.034639 0.009064 0.064474 -0.000108 0.059595 0.074712 0.000563 0.033917 -0.057577 0.035125 0.011207 0.018468 -0.053255 -0.030251 0.016981 -0.009503 0.020550 0.022335 0.004525 -0.056867 -0.045616 0.015807 -0.016957 0.059575 0.002749 0.072415 0.017765 -0.020342 -0.059810 -0.029632 -0.002774 -0.009187 -0.013734 0.068586 0.002825 -0.064732 -0.031321 -0.004833 0.019664 -0.094238 -0.006708 -0.003362 0.013277 0.038655 0.057117 0.076508 -0.057772 0.001475 0.102029 0.024460 -0.022444 0.049234 -0.002604 0.033145 -0.055311 0.038769 0.016860 -0.005162 0.089665 0.062598 0.036549 0.060998 0.034935 -0.000198 -0.014512 0.011447 0.011432 -0.079589 -0.012088 0.036426 0.042680 -0.061669 -0.046395 0.081306 0.032574 -0.095111 0.017234
sent_6 0.014749 0.018934 -0.004697 -0.039821 -0.004362 -0.003054 -0.003547 0.028837 -0.002159 -0.001051 -0.000004 -0.016618 0.009356 0.025929 -0.023046 0.022642 -0.009654 -0.002750 0.017723 -0.029940 -0.044116 -0.011344 0.015937 0.013278 -0.001162 0.028679 -0.011147 -0.041845 0.021812 0.009829 0.030860 0.029324 -0.014159 -0.004595 -0.001070 0.015682 0.014992 -0.027706 -0.000015 -0.002411 -0.000663 0.000319 -0.014774 0.004978 -0.000902 0.016002 -0.004446 0.002859 -0.017972 -0.014807 0.001089 0.007470 0.008995 -0.027250 -0.014867 -0.005244 -0.005322 -0.030805 -0.011884 -0.015143 -0.025203 -0.007277 -0.001699 0.017430 -0.015272 0.017362 0.004419 -0.008415 0.020558 -0.020284 0.014590 -0.007575 -0.014669 -0.020082 0.007009 0.025180 -0.014123 -0.007719 0.001370 -0.002122 0.006058 0.009789 -0.012641 -0.001286 0.006695 0.007783 0.003433 0.007796 -0.012592 0.022604 -0.008822 0.036193 -0.018326 0.025649 0.003357 0.026565 0.004935 0.001103 0.011629 -0.003443
sent_7 -0.019668 0.091747 -0.003594 -0.089480 0.002364 -0.013105 0.011725 0.089774 0.027695 0.010603 -0.048189 -0.057953 -0.048975 0.095779 -0.023033 0.055130 -0.014225 0.038484 -0.021054 -0.050444 -0.077817 -0.058539 0.090229 0.060160 -0.046447 0.062749 -0.057131 -0.067376 0.029317 0.007642 0.042764 0.049891 -0.031771 -0.039693 0.000222 0.016779 -0.059436 -0.053036 0.008338 0.002750 0.041065 -0.075009 -0.033400 0.000824 0.039050 0.023134 0.028533 0.049771 -0.018900 -0.040779 -0.027246 0.023058 -0.003321 -0.097203 -0.043601 0.000813 0.019162 -0.043547 -0.023381 -0.045036 -0.047639 -0.055276 -0.003289 0.046915 0.015481 0.018833 -0.000049 -0.008052 0.043561 -0.037895 0.015674 -0.014444 0.000650 -0.064393 -0.054629 0.064261 -0.028065 -0.027917 -0.004212 0.016782 0.010362 0.058213 0.004930 0.015487 0.052816 0.023942 0.018295 -0.014014 -0.025291 0.103448 0.011600 0.051711 -0.033102 0.006183 0.034517 0.050129 0.015319 -0.024767 -0.006922 0.042545
sent_8 0.040024 0.003320 -0.015370 -0.023328 -0.029693 -0.062536 -0.056204 -0.002900 -0.010060 -0.019908 0.027031 -0.023788 0.039836 0.008029 -0.003821 -0.017645 -0.003840 -0.001205 0.046021 -0.017782 -0.000213 0.045992 0.046756 -0.009177 0.007613 0.028297 0.020934 -0.040079 0.028044 -0.016273 0.008214 -0.001106 -0.038008 -0.036010 0.015631 0.016774 -0.043638 0.014913 0.008191 0.044009 -0.037242 0.021567 -0.030815 0.002705 -0.028845 0.016727 0.016615 -0.036407 -0.017493 0.007241 0.006555 -0.001443 -0.026149 0.020413 0.004699 0.030927 0.014953 -0.013947 0.006308 -0.015831 0.008251 -0.039601 0.008969 -0.014672 -0.005794 0.018778 0.011859 -0.007331 -0.002471 0.005124 0.002716 0.011055 -0.010883 0.013876 -0.019881 -0.003489 -0.007360 0.028153 0.033676 -0.002657 -0.003599 -0.002881 -0.012319 -0.068670 -0.020097 -0.017981 -0.001712 0.020956 -0.017628 0.017981 0.001817 -0.005282 0.005787 0.021495 0.034870 0.020745 -0.011140 0.000387 -0.008674 0.034632
sent_9 0.038139 -0.037557 0.011710 -0.005092 -0.003172 0.002317 -0.020432 0.006696 -0.035499 0.021718 -0.003430 0.004802 -0.004739 0.000590 0.026626 0.006088 -0.023097 -0.008153 0.006354 0.022946 -0.006978 -0.011309 0.008905 0.029892 -0.036729 -0.025403 0.015944 -0.008456 0.013588 -0.017327 -0.020757 -0.022503 -0.008435 0.026695 -0.024927 0.008237 -0.023880 -0.013881 -0.032534 0.039253 0.000813 0.028766 0.029138 -0.016668 -0.001239 0.020050 0.015398 0.022567 -0.016499 0.001720 -0.003781 0.086238 0.023973 -0.029611 -0.018073 -0.014592 0.000095 -0.025624 -0.007649 0.021996 0.042680 -0.042869 0.031686 -0.038075 -0.014269 -0.000662 -0.013745 0.016397 -0.037992 0.019832 0.021247 -0.003011 -0.062839 -0.009791 0.007905 -0.008394 0.006886 0.012452 0.001101 -0.023229 -0.019499 0.019409 -0.020139 -0.018381 0.021395 0.014846 -0.023549 0.031508 -0.005557 0.013844 0.024749 -0.001804 0.002520 0.021075 0.049408 -0.025953 -0.005353 0.005786 0.028441 -0.045761
sent_10 -0.053929 0.047928 -0.028955 -0.000161 -0.010482 -0.015470 0.033937 0.031516 0.009809 -0.005326 0.013661 -0.047600 -0.006783 0.025338 0.005194 0.001526 0.020077 0.025011 -0.000430 0.014122 0.009483 -0.001160 0.065402 0.002138 -0.005750 -0.017216 -0.031840 0.023271 -0.035989 0.006236 -0.017100 -0.001631 0.030490 -0.000091 0.037745 -0.047502 -0.049538 -0.024875 0.039698 0.007610 -0.031357 -0.018683 -0.015915 0.003057 0.024968 -0.015806 -0.024015 0.004810 0.020873 0.001909 -0.001019 -0.023186 -0.005475 -0.071801 0.000162 -0.006646 0.021956 0.009446 0.016801 0.005760 -0.002361 -0.045085 -0.009905 -0.003946 0.012662 -0.000548 0.012237 -0.000036 0.030280 0.019311 0.010824 0.043404 0.018492 -0.004296 -0.019608 -0.000843 0.027772 -0.013457 -0.004340 0.053870 0.030008 0.070800 0.041052 0.002835 -0.008145 -0.015911 0.018741 -0.048346 0.009406 -0.004487 -0.023823 -0.031624 0.001711 -0.044511 0.023913 -0.054128 0.035701 0.007655 0.016342 0.061604
sent_11 0.025857 -0.018142 0.050144 0.021662 -0.002116 -0.033709 -0.000169 -0.018113 -0.022424 -0.017455 -0.009874 -0.011995 0.016367 -0.014838 0.004632 -0.013166 0.005513 -0.035239 0.019835 0.032026 -0.028722 0.028289 0.020310 0.011081 0.018075 0.048630 0.002829 0.030747 0.060453 -0.014376 -0.003812 -0.031548 0.015455 0.022749 -0.012841 -0.010180 0.029643 0.014299 -0.018590 0.039082 0.015531 -0.019857 0.013567 0.001529 0.016019 0.058055 0.007628 -0.021903 0.017066 0.001421 -0.010640 -0.014218 -0.023674 0.016161 0.007977 -0.007253 0.005164 0.011987 -0.032159 0.018633 -0.005409 0.022546 -0.029197 -0.001787 -0.044750 -0.018907 -0.002882 0.029392 0.016098 -0.012978 0.004387 0.000363 0.012251 0.018150 -0.027945 -0.020948 0.006524 -0.003008 0.024532 0.046496 -0.020131 -0.007697 -0.001712 0.007269 0.017222 0.044316 0.016844 0.018276 -0.010081 0.008445 0.001080 -0.026434 0.088867 -0.012062 -0.026714 -0.018671 0.028720 -0.001757 -0.028335 0.022346
sent_12 0.004699 0.001453 -0.016487 0.023206 -0.033334 -0.034698 -0.022033 -0.011077 -0.000247 0.007246 -0.002164 -0.000437 0.029850 0.037727 -0.031628 -0.023034 -0.017573 -0.025234 0.023793 0.011287 -0.021516 0.016721 0.026426 -0.013048 -0.004501 -0.007589 -0.005900 -0.019368 -0.016111 -0.006325 0.004721 -0.023389 -0.023525 -0.011992 -0.010830 -0.014794 0.006618 -0.012261 0.011602 0.008155 -0.014552 0.036083 0.006990 -0.013919 -0.003856 0.010862 -0.024703 -0.009180 -0.017757 0.015767 0.023283 0.010247 -0.023937 0.010916 0.014380 0.012018 0.005460 -0.013847 -0.016551 -0.045861 -0.001117 -0.010743 -0.037054 0.012770 -0.020465 0.031895 0.008864 0.009633 0.004827 0.004279 -0.001197 0.006705 -0.035418 0.006373 0.003187 0.005574 -0.001139 -0.003565 0.005432 -0.002651 -0.007925 0.015470 0.002081 -0.008035 -0.006785 0.006043 -0.030359 -0.015705 -0.039568 0.005882 0.006301 0.015281 -0.016344 0.029598 0.017766 -0.011211 -0.019566 0.030640 -0.020170 -0.027207
sent_13 0.002928 -0.009034 0.004189 0.001428 0.009157 0.002880 0.000907 0.010782 0.003153 0.001182 0.002133 -0.000455 -0.001328 0.006767 -0.004844 0.001588 -0.001095 -0.000720 -0.002313 0.004633 0.008445 0.004432 0.003996 -0.000892 -0.000135 -0.000384 0.008154 -0.002657 -0.005182 -0.007025 -0.008181 -0.000172 -0.004930 -0.002548 -0.001271 0.005755 -0.007610 0.001424 -0.008471 0.009781 0.004604 -0.000878 -0.001064 -0.007082 0.008071 0.005555 0.002431 0.010364 -0.011196 0.003473 -0.005071 0.010866 0.004461 -0.003702 -0.002616 -0.006214 0.001549 -0.006479 0.007579 -0.001507 0.001908 -0.006515 -0.004196 -0.005156 0.008926 0.005155 0.001035 0.009644 -0.001298 0.004173 0.005207 -0.002195 -0.004617 -0.012092 -0.011989 0.000617 -0.009836 0.011540 0.000187 -0.000543 -0.009394 0.001257 -0.003312 0.005507 0.010514 -0.007771 0.000921 -0.003478 -0.008215 0.005036 0.001379 -0.002383 0.008531 0.002277 -0.000128 0.006640 0.001026 0.001913 0.008166 -0.001301
sent_14 0.005562 -0.004937 0.009403 -0.004445 0.004662 0.007755 0.003301 0.003397 -0.008860 -0.000900 -0.001608 -0.000376 0.000395 -0.002632 -0.003338 -0.004198 0.009680 0.006936 -0.007112 -0.007353 -0.005263 -0.001412 -0.008422 -0.003046 -0.000132 0.005787 -0.000060 -0.001844 -0.000839 -0.000523 -0.007592 0.003870 0.010141 0.003703 -0.002836 -0.000418 0.000837 -0.002656 -0.007507 0.003906 0.001152 0.003430 0.000375 0.001955 -0.006947 0.008705 0.000805 0.002091 -0.003860 -0.005219 0.006110 0.001095 0.000750 -0.006018 0.001239 -0.006620 0.005738 -0.000372 0.001554 0.000121 0.001727 0.004218 0.010250 -0.010327 -0.005442 -0.006550 -0.001862 -0.003615 -0.008966 -0.003409 -0.000152 0.001213 -0.006685 -0.006457 -0.000027 -0.002307 0.007643 0.002625 -0.012786 -0.002765 -0.010274 0.001791 -0.000219 -0.002787 0.004590 -0.002726 0.009917 0.007578 -0.004614 -0.000728 -0.000816 -0.002697 0.002154 -0.006429 0.003351 0.006447 0.009049 0.001900 0.002335 0.006104
sent_15 -0.014010 -0.038719 0.011742 0.023382 -0.021727 0.007661 -0.031405 0.018519 -0.025159 0.029792 -0.007289 0.000286 0.029661 0.015518 0.016866 0.039143 -0.032571 -0.047163 -0.009220 0.017591 -0.002388 -0.006168 0.027080 0.045333 0.005423 -0.011982 -0.040160 -0.020939 0.024816 -0.013243 -0.014204 -0.015200 -0.027373 0.032758 -0.006260 -0.021196 -0.042180 0.010534 -0.012628 0.024743 -0.028325 0.019123 0.036461 -0.008991 0.011615 -0.002350 0.001654 0.022918 -0.027153 0.001911 -0.036245 0.075552 -0.007529 -0.018023 0.010515 0.055507 -0.002185 -0.025616 -0.008300 0.015975 0.022663 0.001851 0.030739 -0.004413 -0.023791 0.025321 0.001948 0.012370 0.012759 0.000822 0.035895 -0.012765 -0.052629 0.007482 -0.002580 0.009087 -0.048328 -0.001950 0.008187 0.009332 0.004307 0.022930 -0.015959 -0.005385 0.047516 0.051559 -0.033004 0.042599 -0.014874 0.006032 0.054132 0.011550 0.012286 0.009603 0.022452 -0.023959 -0.013598 -0.010809 -0.002665 -0.039500
sent_16 0.026052 -0.016903 -0.006782 0.005095 -0.019156 -0.050187 -0.032395 -0.001580 0.018503 0.014712 -0.034687 -0.002758 0.002044 -0.041989 0.001115 -0.026105 -0.004120 0.040099 -0.006528 -0.010906 0.064959 -0.029940 -0.038950 -0.040814 0.040989 -0.025728 -0.017274 0.021842 0.069873 -0.032809 0.002922 0.002491 0.016970 -0.051589 -0.010083 -0.007839 0.037952 0.015117 -0.019421 -0.020910 0.007981 -0.016849 -0.054330 -0.002332 -0.029239 0.018138 0.053579 0.025539 -0.033670 0.000781 -0.018258 -0.038363 -0.055779 0.027400 0.046550 -0.029266 0.022490 -0.014858 -0.014405 -0.069197 -0.019501 -0.016605 -0.075381 0.033458 0.034212 -0.002128 0.001096 0.000529 0.011640 0.034727 0.022524 -0.069072 0.004108 0.041789 -0.033526 0.058251 -0.025740 0.012287 0.045353 0.004580 0.051287 0.007659 0.012180 -0.010277 -0.025337 -0.008143 -0.037854 0.016695 0.000453 0.090527 0.033772 0.019504 0.008227 -0.032498 -0.044515 0.025468 -0.035103 -0.042482 -0.072291 0.029568
sent_17 0.032317 -0.163904 0.086812 0.002694 -0.098738 -0.121005 -0.106598 -0.111155 -0.149457 -0.009022 -0.156447 0.011717 0.207457 0.161502 -0.076607 -0.034512 -0.052369 -0.175153 -0.070391 -0.023327 -0.063479 -0.054932 0.075603 0.083266 0.150089 0.058811 -0.119506 -0.005126 0.050902 -0.039435 -0.094742 -0.117062 -0.084052 -0.033471 -0.017978 -0.132883 -0.098079 0.018193 -0.048280 0.162455 -0.011269 0.088853 0.019211 -0.104330 0.058717 0.045508 -0.116052 0.007736 -0.169621 0.137830 -0.023089 0.131209 -0.066946 0.045413 0.017775 -0.014167 0.108849 0.081851 -0.013841 -0.156210 -0.091387 -0.010873 -0.128178 -0.083201 -0.063859 0.070801 -0.029499 0.137445 0.132614 -0.130609 0.195362 0.051720 0.029587 -0.029772 0.093057 0.124409 0.100594 -0.042668 0.004421 0.059496 0.096390 0.112199 -0.058243 0.075367 0.140138 0.101522 -0.097663 0.189465 -0.190908 0.085648 0.128558 -0.013103 0.125296 -0.020386 -0.085237 -0.040762 -0.062966 -0.047668 -0.119951 -0.160452
sent_18 0.016865 -0.062153 0.005491 0.021601 -0.007997 -0.005566 -0.025366 0.002489 -0.027164 0.015280 0.000985 0.002221 0.036571 0.027176 0.025125 0.001227 -0.031616 -0.015404 0.007392 0.019242 -0.019877 -0.011803 0.030575 0.037460 -0.001189 -0.010171 -0.008639 -0.008709 0.011255 -0.005803 -0.014946 -0.004278 -0.012375 0.012542 -0.000256 -0.008529 -0.014321 -0.013150 -0.022016 0.044803 -0.027099 0.049150 0.038294 -0.018336 0.012460 0.002572 -0.016108 0.028893 -0.022307 -0.000473 -0.015782 0.074990 0.037194 -0.014057 0.002660 -0.007442 0.005664 -0.017812 -0.004998 -0.003086 0.006964 -0.043924 0.021499 -0.036566 -0.025054 0.010528 -0.020645 0.022832 -0.018655 -0.001439 0.038399 -0.017130 -0.044902 -0.017330 0.026745 -0.005788 0.004612 -0.009473 -0.011608 -0.038346 0.019627 0.019916 -0.019905 -0.001635 0.034393 0.037232 -0.036069 0.056758 -0.021176 -0.003817 0.042592 0.025532 -0.007115 0.020952 0.021571 -0.030248 -0.013212 0.020041 0.024533 -0.044017
sent_19 0.022068 0.036891 0.016399 -0.049990 -0.014867 -0.029813 0.000642 0.034977 0.012866 0.003959 -0.010790 -0.019780 -0.005443 0.049601 -0.016387 0.011689 -0.024634 0.015813 0.013570 -0.021720 -0.026266 -0.013770 0.006150 -0.008526 -0.025792 0.028292 -0.026944 -0.033165 0.035891 0.008266 0.035742 -0.002365 -0.013342 -0.012253 0.006425 0.018733 0.010412 -0.027269 -0.001741 0.023956 0.025103 -0.008025 -0.027150 -0.019421 -0.000444 0.013025 0.023993 0.006332 -0.007925 -0.016002 -0.014314 0.008414 -0.022439 -0.017112 -0.018775 0.006586 -0.009138 -0.032273 -0.036080 -0.028209 -0.030327 -0.020540 0.002654 0.032190 0.007280 0.017203 0.014425 -0.007183 0.015173 -0.001587 -0.015163 -0.010935 -0.004949 -0.021292 -0.026777 0.036489 -0.020611 -0.011742 0.025965 -0.014874 -0.001259 0.017660 -0.009239 0.017835 0.026790 0.019714 -0.013681 0.004452 -0.018406 0.048465 0.019323 0.037269 -0.001434 0.024423 0.012529 0.016950 0.007300 -0.022230 -0.021859 0.003233
sent_20 -0.031413 0.019938 -0.024859 0.011997 -0.030246 0.025550 0.052265 -0.000626 0.044125 -0.012235 0.055799 -0.020896 0.022124 -0.000208 0.044541 0.035472 -0.007922 -0.003436 0.005918 0.017463 -0.002389 -0.036018 0.007282 -0.022578 -0.049374 -0.059726 0.000395 0.007974 0.047521 0.025682 0.031181 -0.026817 0.015350 -0.008194 0.066813 0.010117 0.019968 0.017581 -0.009834 -0.017241 -0.003262 0.015315 -0.010554 0.018433 0.014424 -0.017245 0.030171 0.007471 0.028713 0.010393 -0.004012 0.028853 -0.024450 0.036616 0.005612 -0.005747 -0.048854 0.001822 -0.028237 0.003477 0.035901 -0.099277 -0.020045 -0.004970 0.044595 0.025378 -0.025746 -0.035115 -0.020166 -0.022336 -0.012151 -0.014010 -0.000660 0.038642 0.012401 0.063735 -0.002271 -0.026467 0.015403 -0.017900 -0.031417 0.010502 0.018804 -0.020617 0.067979 -0.007322 0.019511 0.058650 0.045338 0.036660 0.056802 -0.022385 -0.024834 0.010246 -0.024672 -0.000362 0.021427 -0.028882 0.021282 -0.006344
sent_21 -0.023768 -0.000168 0.035392 0.021793 0.028578 0.004088 -0.045746 0.050123 -0.009374 -0.003519 -0.027872 0.015448 0.081318 -0.020056 -0.048412 -0.036058 0.001513 -0.012595 -0.050275 -0.040158 -0.015158 0.013680 -0.013039 0.069428 0.044187 0.095161 -0.053867 0.026138 -0.008929 0.002743 -0.034874 -0.056497 -0.013670 -0.052836 0.030198 -0.010300 -0.045235 0.011852 -0.037360 -0.008149 -0.008153 -0.036744 0.045675 0.060764 0.057599 -0.007962 -0.041136 -0.021562 -0.034562 0.039689 -0.020734 0.020150 0.046867 -0.047867 -0.024713 -0.018296 0.032837 0.062035 0.069904 -0.025695 0.016814 -0.052997 0.055305 -0.054450 0.002720 -0.081232 0.015596 -0.038395 -0.005952 -0.001754 0.040398 0.014055 0.047750 -0.015717 0.051031 0.043625 0.036954 -0.006522 -0.056698 -0.015960 0.034708 -0.021135 0.027525 0.074166 0.047476 0.046663 0.016835 0.068395 -0.044763 -0.023401 0.006989 -0.009345 -0.016671 -0.082920 -0.078216 -0.051890 -0.049183 -0.010113 -0.022555 -0.011792
sent_22 0.002797 -0.037773 0.010745 0.011381 0.000121 -0.014071 -0.007873 0.007709 -0.011532 0.011861 0.005806 0.008158 0.010607 0.030636 0.013293 0.016320 -0.010828 -0.032571 0.002287 0.022010 -0.000531 -0.019419 0.006777 0.030258 0.001685 -0.011173 0.002908 -0.007079 0.012152 -0.011630 0.009191 -0.003540 0.010596 0.024572 -0.003447 -0.008813 -0.019140 0.011776 -0.014499 0.004754 0.000312 0.009785 0.017643 -0.012092 0.018354 0.002510 0.015105 0.012714 -0.003707 -0.007988 -0.018484 0.028285 0.019724 -0.036218 -0.002883 0.007425 -0.010202 -0.028577 0.009598 -0.002815 -0.000690 -0.022178 0.018162 -0.000449 0.005529 0.015940 0.002213 0.007731 0.011471 -0.013525 0.024668 -0.002506 -0.010755 -0.010259 -0.007006 0.005801 -0.032042 0.017282 -0.002927 -0.005454 0.018059 0.007556 -0.008799 0.017924 0.028520 0.020753 -0.005289 0.002509 -0.023361 0.010905 0.009832 0.017881 0.009077 0.007191 0.018070 -0.016724 -0.003442 -0.000108 0.019641 -0.012167
sent_23 0.040574 -0.050630 0.059014 -0.033694 -0.050483 0.002629 -0.134692 0.055867 -0.086095 0.031028 -0.102800 -0.025748 0.038132 0.103584 -0.061335 0.083912 -0.063760 -0.096109 -0.074183 0.004733 -0.113487 -0.067210 0.127374 0.219553 0.079541 0.071680 -0.083839 -0.046997 0.061398 -0.072236 -0.043602 0.025838 -0.049418 -0.021871 -0.014129 -0.100174 -0.217749 -0.032000 -0.041820 0.069839 0.044413 -0.060843 0.093274 -0.031076 0.065117 0.002802 -0.026993 0.020105 -0.103489 0.004144 -0.098732 0.088152 0.099398 -0.136140 -0.017860 -0.024744 0.087904 0.036394 0.072050 -0.064619 -0.074855 0.007280 0.012069 0.007999 0.013839 -0.055358 -0.037397 0.033111 0.102840 -0.086150 0.164472 0.055642 -0.013646 -0.063583 -0.037035 0.154339 0.018921 0.009551 -0.038007 0.004466 0.111988 -0.001252 -0.075225 0.037348 0.099557 0.073221 -0.042446 0.127881 -0.146447 0.129738 0.068912 0.055984 -0.001540 -0.104721 0.011522 0.010086 -0.055934 -0.047687 -0.093865 0.002940
sent_24 -0.099624 0.052428 -0.058759 0.055795 -0.077920 -0.062425 -0.072665 -0.007107 -0.071375 -0.061526 -0.075939 0.011886 0.015047 0.162236 -0.058748 -0.033799 -0.042106 -0.069018 -0.025379 0.010656 -0.084537 -0.003780 0.131846 0.183763 0.088187 0.060500 -0.081289 0.086947 -0.020100 -0.061989 -0.143583 -0.035399 -0.045061 -0.009785 0.007619 -0.127457 -0.214931 -0.007824 0.005506 0.114321 -0.059420 -0.083597 0.061029 -0.029805 0.169769 -0.021854 -0.097238 0.042821 0.016175 0.043247 -0.163100 0.011984 0.051861 -0.126852 0.002904 -0.015308 0.117282 0.044904 0.041766 -0.087350 -0.077947 -0.082055 -0.016737 -0.031825 0.013694 -0.043592 0.011529 0.102747 0.118195 -0.106391 0.121364 0.060444 0.109501 -0.073231 -0.027748 -0.011881 0.117114 -0.042984 0.024706 0.141925 0.217697 0.095169 0.014035 0.106334 0.087141 0.015929 -0.040405 0.072227 -0.056167 0.048855 0.038779 -0.069368 0.081694 -0.104421 0.021931 -0.111812 0.006070 -0.045545 -0.081888 -0.003938
sent_25 0.016402 -0.045394 0.086397 0.062211 -0.080961 -0.039732 -0.134267 -0.011211 -0.153324 0.011081 -0.107090 -0.073041 0.097975 0.018606 -0.050836 0.002594 -0.130770 -0.168265 -0.112406 0.031349 -0.057974 0.042974 0.097528 0.158032 0.103713 0.017541 -0.099213 0.036077 -0.017863 -0.033466 -0.017225 -0.110300 -0.036746 -0.135350 -0.032455 -0.127093 -0.224968 0.033692 -0.026460 0.031417 0.036266 0.040486 0.008555 0.019143 0.039186 0.018162 -0.096161 0.011814 -0.072395 0.048385 -0.059635 0.147600 -0.023623 -0.124177 -0.031408 -0.018948 0.050121 0.097430 0.031162 -0.077106 0.092616 -0.004623 -0.030360 0.010319 -0.081525 0.049601 0.063854 0.103970 0.204697 -0.102235 0.144968 0.019442 -0.039021 0.008885 0.062357 0.122058 0.151298 0.016457 -0.036872 0.077675 0.065635 0.090866 0.035634 0.059578 0.174865 0.146491 0.010763 0.199793 -0.063535 0.090641 0.115416 0.006084 0.066822 -0.122048 -0.035270 -0.003033 0.011780 -0.126939 -0.124821 -0.098561
sent_26 0.023831 -0.093135 0.090552 -0.045051 -0.065194 -0.039399 -0.188264 0.114970 -0.102571 -0.071840 -0.150802 -0.040168 0.108464 0.056897 -0.044123 -0.056181 -0.063259 0.006897 -0.080626 0.027959 -0.061965 0.102518 0.139121 0.252802 0.192935 0.084084 -0.112926 0.033495 0.086280 -0.051132 -0.090259 0.006065 -0.052890 -0.083611 -0.094785 -0.051012 -0.240235 0.006539 -0.181465 0.179983 -0.040253 -0.108439 0.011901 -0.047648 0.046163 0.007321 -0.100122 -0.043371 -0.102749 0.053299 -0.122876 0.158792 0.101188 0.008046 0.027857 -0.075007 0.173413 0.213771 0.126613 0.002950 -0.044779 -0.165975 0.061744 -0.142342 -0.024017 -0.122183 -0.035942 0.023034 0.023539 -0.107948 0.262207 0.003710 -0.008705 0.040346 -0.050772 0.085380 0.141323 0.052180 -0.060558 0.051856 0.188215 0.083211 -0.052342 -0.010584 0.074930 0.023092 0.031848 0.248756 -0.179646 0.096538 0.082352 -0.104112 -0.078211 -0.154472 0.019110 0.059310 -0.053648 -0.117289 -0.081649 -0.011687
sent_27 0.009874 -0.085319 0.034269 -0.026070 -0.085540 -0.094951 -0.211442 0.101578 -0.150181 -0.015797 -0.015760 -0.063075 0.143893 0.126284 -0.061846 0.056027 -0.052042 -0.124248 -0.039032 -0.062704 -0.086808 0.011453 0.127743 0.208002 0.191620 0.041566 -0.120987 -0.087844 0.094351 -0.062180 -0.033990 -0.012471 -0.087127 -0.033019 0.000776 -0.096819 -0.238452 0.077162 -0.027866 0.175374 -0.099148 0.018426 0.002489 -0.030577 -0.010989 0.020505 -0.090427 -0.026376 -0.125180 -0.001371 -0.128704 0.189958 0.044268 -0.055261 -0.011981 0.051256 0.070284 0.021863 0.067719 -0.067819 -0.034409 -0.094483 0.024774 -0.042397 -0.072228 0.041256 -0.010158 0.066405 0.116274 -0.122566 0.173313 0.018544 -0.041275 0.069593 -0.030127 0.066867 -0.009359 0.040673 0.009901 0.036417 0.131394 0.033459 -0.071952 -0.062002 0.100654 0.049737 -0.001109 0.204223 -0.172490 0.111264 0.175891 -0.019778 -0.008275 -0.034599 0.046400 0.045255 -0.047890 -0.046098 -0.082219 -0.024966
sent_28 0.030630 -0.144427 0.073666 -0.038560 -0.049235 -0.025744 -0.049672 -0.068207 -0.108211 0.004183 -0.122353 -0.008754 0.088703 0.079780 -0.000374 0.091640 -0.103474 -0.098174 -0.109372 0.020747 -0.019556 -0.105484 0.006031 0.110824 0.109445 0.031475 -0.057094 0.053526 0.082498 -0.026334 -0.070434 -0.051432 -0.045458 0.014602 -0.021538 -0.097301 -0.160223 0.032755 -0.010500 0.092560 0.049677 -0.008187 0.015743 -0.104096 0.032831 0.009573 0.037806 -0.001208 -0.093724 0.091555 -0.113593 0.121786 0.007285 -0.030253 0.022939 -0.016704 0.112275 0.055000 0.051164 -0.076869 -0.062240 0.006494 -0.082931 -0.023778 0.036910 0.002974 -0.044745 0.103107 0.138408 -0.106318 0.161426 0.008866 0.047163 -0.016769 0.015002 0.159622 0.018344 -0.016950 0.070300 0.076569 0.130854 0.066424 -0.024485 0.088812 0.126688 0.062778 -0.076114 0.120568 -0.088708 0.118471 0.077166 -0.062227 0.076500 -0.038551 -0.076374 -0.034598 0.009069 -0.076832 -0.075955 -0.108216
sent_29 -0.069289 0.092136 0.043346 0.040504 -0.045890 -0.141981 -0.101480 0.086020 -0.189267 -0.056440 -0.066660 -0.106302 0.042081 0.187245 -0.041675 -0.023450 -0.045343 -0.082085 -0.053969 -0.170134 -0.132423 -0.039587 0.062797 0.154610 0.242455 0.145791 -0.240867 0.121373 0.055734 -0.095375 -0.043499 -0.006055 0.035443 0.064387 0.041001 -0.234857 -0.293579 0.121728 -0.039571 0.098137 -0.103899 -0.023601 0.000307 -0.067664 0.111523 -0.017250 -0.072934 -0.054141 0.059344 0.003585 -0.145534 0.098911 0.105543 -0.129208 -0.075873 0.004369 0.110860 -0.012274 0.073835 -0.162702 -0.082381 -0.015808 -0.019499 -0.047387 0.049595 0.014233 0.061375 0.172768 0.130676 -0.238938 0.069811 0.168473 0.257308 0.009084 -0.028986 -0.004051 0.095168 -0.061561 0.040291 0.084493 0.176403 0.147667 0.031717 0.127099 0.145492 0.139791 0.001491 0.103524 -0.066968 0.119654 0.177074 -0.044272 0.156178 -0.083872 -0.022134 -0.100471 0.151329 -0.144945 -0.085886 0.024143
sent_30 0.017178 -0.028012 -0.002089 0.029547 -0.020684 -0.008726 -0.032239 0.003039 -0.010574 0.030724 -0.009267 -0.004180 0.024435 0.042544 0.024371 0.028810 -0.029772 -0.012561 -0.031093 0.006951 -0.000183 -0.023231 0.013207 0.010930 -0.014999 -0.015203 0.011339 -0.005015 0.028394 -0.006320 -0.007464 -0.002965 -0.013217 -0.010771 0.010797 -0.026556 -0.021270 -0.004290 0.011286 0.021917 -0.002915 0.024028 0.006588 -0.031960 0.019276 0.000631 0.005937 -0.006143 -0.011314 -0.008693 -0.009611 0.033856 -0.007772 -0.050641 -0.007500 0.015940 0.001462 -0.027497 -0.004645 -0.006737 0.013617 -0.034455 0.017305 -0.010149 0.005970 0.029708 -0.014441 0.015484 0.032914 -0.020926 0.017176 -0.012351 -0.000572 0.004307 -0.005643 0.020402 -0.012209 0.000841 0.005081 0.002786 0.031676 0.005066 0.005909 0.018624 0.026821 0.024389 -0.013312 0.000855 -0.005347 0.002909 0.026601 -0.002793 0.013015 -0.008051 0.025755 -0.025603 -0.006415 -0.015854 0.001505 -0.028825
sent_31 0.071063 -0.058561 0.039043 -0.067209 -0.050822 -0.042545 -0.066234 -0.036888 0.017755 0.016640 -0.034645 -0.026815 -0.019684 -0.060394 0.003223 0.042138 -0.027177 0.003887 -0.120433 0.025451 0.053939 -0.000425 -0.015676 0.015024 0.068156 -0.061828 0.024891 -0.030388 0.019784 0.018249 0.037894 0.068949 0.023541 -0.094464 -0.081370 -0.005440 -0.068999 0.035291 -0.045196 0.010277 0.054603 0.026030 -0.049036 0.021526 -0.074367 0.101330 0.015973 -0.081484 -0.064187 -0.027210 0.016374 -0.050740 -0.099152 0.076450 0.043949 -0.008566 0.063297 0.026162 0.039617 -0.059457 -0.020595 -0.046155 -0.091691 0.089323 -0.008310 0.028027 -0.014513 -0.105288 0.043650 -0.028398 -0.027354 -0.026053 0.000275 0.119089 -0.140536 0.108269 -0.052295 0.050458 0.070947 0.045100 0.043384 -0.011428 -0.001145 -0.075403 -0.056706 -0.059310 -0.004599 -0.017665 -0.014890 0.063202 -0.047023 -0.050073 0.015319 -0.000250 0.031818 0.091061 -0.024935 -0.087130 -0.038513 0.016596
sent_32 0.076887 -0.054182 0.027691 -0.079756 -0.050549 -0.047411 -0.080521 -0.035066 0.010377 0.011769 -0.028954 -0.029300 -0.028281 -0.067008 0.009931 0.040856 -0.035466 -0.003448 -0.126297 0.008909 0.064198 -0.008915 -0.018198 0.010703 0.065587 -0.060859 0.021898 -0.027333 0.024952 0.010121 0.035964 0.065320 0.031896 -0.090558 -0.085975 -0.011764 -0.079717 0.041188 -0.047601 0.014492 0.045379 0.031855 -0.058386 0.023468 -0.079081 0.115371 0.023096 -0.096084 -0.061050 -0.034043 0.020321 -0.048956 -0.100176 0.077944 0.042984 0.001277 0.048426 0.025560 0.047851 -0.058865 -0.022736 -0.051991 -0.094692 0.093791 -0.003754 0.042049 -0.011081 -0.104228 0.044049 -0.038438 -0.035452 -0.023336 0.009531 0.132970 -0.153797 0.113020 -0.047531 0.054526 0.077814 0.046752 0.038205 -0.016396 -0.006986 -0.080697 -0.051373 -0.075238 0.000716 -0.017824 -0.014635 0.079433 -0.040425 -0.048954 0.015586 0.003961 0.038914 0.094635 -0.019283 -0.098898 -0.035548 0.016483
sent_33 0.009226 0.001199 -0.002894 -0.003065 -0.010398 -0.014007 0.005214 -0.018851 -0.010503 -0.001871 0.001792 -0.004916 -0.014235 -0.019620 -0.004957 -0.008432 -0.011640 -0.010785 -0.005920 -0.018184 -0.003157 0.002204 -0.014127 0.005771 0.008793 -0.008715 -0.021092 0.020276 -0.004816 0.001404 0.000512 0.003149 0.010241 0.009389 -0.007682 -0.010119 -0.021585 0.021894 -0.001902 -0.001612 0.005709 0.000054 -0.002623 0.013240 -0.008215 0.009931 0.000284 -0.011857 0.010124 0.002618 0.009027 0.005444 -0.012486 0.011728 0.010572 0.018845 -0.008804 0.006165 0.003700 0.002941 0.001067 0.009896 -0.003873 0.016162 0.003174 0.013355 0.007594 -0.008109 0.010033 -0.000254 -0.012516 0.009465 0.000264 0.011750 -0.000244 0.002884 0.021699 0.010873 0.015903 0.005006 0.006500 0.006759 -0.011494 -0.006577 -0.009344 -0.009297 -0.007427 -0.004603 0.009977 0.017565 -0.018386 -0.014906 0.013557 0.013817 -0.002004 0.002367 0.007129 -0.021088 0.001076 0.002056
sent_34 0.059156 -0.060625 0.023337 -0.040437 -0.004668 0.040994 -0.054721 0.012180 0.033875 0.066953 -0.056501 0.027351 -0.008548 -0.069863 0.061750 -0.009656 -0.014450 0.093570 -0.024990 -0.022122 0.029588 0.005629 0.013675 -0.070774 -0.020313 -0.076088 0.013119 -0.018951 0.014944 0.004946 0.030100 0.070449 0.018329 -0.050664 -0.016543 -0.025093 0.026753 -0.028758 -0.016972 -0.005794 -0.028682 0.037733 -0.022635 -0.021404 -0.071531 0.023362 -0.000532 -0.006857 -0.022886 0.005733 0.001312 -0.002784 -0.038773 -0.021250 0.021000 -0.033330 0.017605 0.031133 0.000909 -0.005076 0.015892 -0.024739 -0.060088 -0.004512 0.035241 -0.011772 0.000445 -0.033462 -0.037881 0.073998 0.027482 -0.055379 -0.054706 0.047021 -0.094114 0.077946 0.008448 0.008089 -0.005623 -0.047923 -0.011871 0.031031 -0.020419 -0.043224 0.004952 -0.011943 0.004354 0.001312 0.029467 0.031641 0.009931 -0.021464 -0.014861 -0.038709 0.054998 0.017455 0.007292 -0.040270 -0.002853 -0.045123
sent_35 -0.010030 -0.058924 0.036738 0.051478 -0.046686 -0.059484 -0.018817 -0.030961 -0.042945 0.035783 -0.024301 -0.006051 0.043516 0.014952 -0.005786 0.001707 -0.083776 -0.077908 -0.060237 0.025238 -0.064619 0.009188 -0.023023 0.057505 0.004761 0.045204 -0.026316 0.091720 0.053449 -0.038764 -0.017337 -0.014685 0.030195 0.034292 -0.006008 -0.061692 -0.061293 0.035721 -0.008735 0.045530 0.010765 0.052931 0.011645 -0.016995 0.017829 -0.028781 0.060847 -0.026468 0.014261 -0.018906 -0.022784 0.017689 -0.001093 -0.031684 0.018895 0.028938 0.014503 0.025327 -0.030521 -0.047958 0.029113 0.050616 -0.006749 0.020453 -0.015349 -0.005320 0.024017 0.029600 0.076801 -0.042490 0.045055 0.030907 0.012842 0.029819 -0.001809 0.043210 0.015173 0.001393 -0.006445 0.040054 0.030181 0.040477 0.025835 0.075053 0.040815 0.083928 -0.042560 0.015492 0.010094 0.026365 0.017159 -0.002729 0.048121 0.002793 -0.029539 -0.035974 0.011895 -0.031328 -0.049311 -0.025103
sent_36 -0.019441 -0.040577 -0.020192 0.044374 -0.079976 0.006805 -0.009811 -0.013015 0.013244 -0.008661 -0.029749 0.026383 0.026346 -0.056148 0.032894 0.033200 0.012377 0.038199 -0.000165 -0.000263 -0.023765 -0.076051 -0.070392 -0.039396 0.043137 -0.097766 -0.008327 0.033955 0.056401 0.046204 0.030555 0.010295 0.056559 -0.061245 0.053701 -0.024446 0.059358 0.009271 -0.011396 -0.079164 0.011195 0.065134 -0.051396 0.065106 -0.025330 -0.019738 -0.012115 0.030721 -0.015989 -0.011441 -0.006574 -0.044723 -0.025540 0.060829 0.002163 -0.017629 -0.047689 -0.005477 -0.037781 -0.039500 0.008285 -0.010923 -0.097980 0.088599 0.031380 -0.003957 0.009939 -0.040390 0.018515 -0.029978 0.033013 -0.094615 0.018353 0.068005 -0.006061 0.101431 -0.025845 0.018923 0.009108 0.047749 0.067541 -0.013547 0.066401 -0.049924 -0.011309 -0.028015 -0.002680 0.044375 0.052523 0.088380 0.081613 0.005800 -0.008997 -0.039440 -0.009186 0.050560 -0.037490 -0.097891 -0.022762 0.030476
sent_37 0.037890 -0.074350 0.042754 -0.037496 -0.020982 -0.160512 0.028856 -0.065143 -0.052897 -0.005133 -0.056371 -0.090626 0.064485 0.054748 -0.006404 -0.078832 -0.068791 -0.074601 0.038898 -0.043932 -0.042378 -0.081994 0.014935 -0.068502 0.040966 0.050353 -0.021313 0.002851 0.086433 -0.024062 -0.002811 0.015732 -0.024096 -0.024119 -0.012731 -0.034048 0.013665 0.022209 0.041212 -0.010309 0.023441 0.058405 -0.045780 -0.059366 -0.076540 0.029139 0.046941 0.014465 -0.054705 0.022545 0.035591 -0.035502 -0.073152 0.034490 0.061659 0.017856 0.049206 -0.075103 -0.115919 -0.068848 -0.053448 0.033966 -0.085539 0.030890 -0.055519 0.107563 0.045563 0.056782 0.067988 -0.046659 0.032722 0.007864 0.001845 -0.033249 0.012061 0.056770 -0.010306 -0.014428 -0.012939 0.033644 0.003293 0.128611 0.010238 -0.002085 0.059797 0.063636 -0.088139 -0.006439 -0.065334 0.072139 -0.021206 0.064470 0.092201 0.072432 -0.101105 0.027126 0.040732 0.029757 -0.059078 -0.018410
sent_38 -0.036892 0.037505 0.003308 0.025759 0.019526 0.028336 -0.047426 -0.018569 0.005262 -0.053355 -0.029368 -0.030273 -0.016877 -0.034353 0.002185 -0.062274 0.022986 0.012480 -0.012980 0.039073 -0.060053 0.041829 0.023630 0.048951 0.032484 0.020035 0.019175 0.020940 -0.057451 -0.006354 0.006397 -0.052204 0.021377 -0.045480 -0.021720 0.012621 -0.009574 -0.007865 0.015205 -0.048099 0.037230 -0.039162 0.060995 0.029922 0.044528 -0.004455 -0.066216 0.015049 -0.015002 0.058889 -0.003412 0.031828 0.062602 -0.043593 -0.010338 -0.067383 0.013449 0.051475 0.055700 -0.033996 0.053415 -0.053169 -0.076202 0.025791 0.002574 -0.020547 0.048347 0.001753 0.025426 0.013697 0.014123 -0.026808 0.010790 -0.008038 -0.016824 0.015781 0.058801 0.022505 -0.020609 0.046019 -0.001750 0.023077 0.005318 0.049792 0.015694 -0.009646 0.048143 -0.003364 -0.024088 0.034459 0.002820 -0.008060 -0.015388 -0.074655 -0.013753 -0.010987 0.003147 -0.016557 0.030004 -0.013769
sent_39 0.007128 0.016375 0.006614 0.034980 0.008697 0.013148 -0.017936 0.035239 -0.010400 0.010675 -0.014739 0.012850 0.017590 0.007089 -0.003774 -0.010066 -0.021685 0.003169 -0.023415 -0.042627 0.019288 -0.037104 -0.010744 0.024285 0.004228 0.017444 -0.039595 0.022535 0.003124 0.005118 -0.005085 -0.013627 -0.012117 -0.021805 0.023715 -0.023639 -0.024809 0.005047 -0.026599 -0.025556 -0.013406 -0.002528 0.045382 -0.011904 0.027902 -0.001458 -0.013263 0.025066 -0.002103 0.015823 -0.025763 0.022271 0.015404 -0.047319 -0.028530 0.009285 0.003769 -0.034204 0.011327 -0.002814 0.021406 -0.027501 0.036692 -0.018246 0.028290 -0.004380 -0.004803 0.000291 -0.014263 -0.009694 -0.023218 0.005065 0.044573 -0.025273 0.007070 0.010007 -0.001628 -0.017819 -0.009836 -0.022582 0.031391 0.014287 0.013130 0.028073 0.036822 0.032141 -0.018851 0.015836 -0.012859 0.005217 0.035383 0.027502 0.012097 -0.026998 -0.003921 -0.044013 -0.005969 -0.029293 0.014069 -0.016920
sent_40 0.019390 0.026618 0.026551 -0.061322 0.006991 -0.006165 -0.027873 0.046463 0.027996 0.016597 -0.031904 -0.030098 -0.027080 0.027819 -0.009137 0.022253 -0.014130 0.021707 0.005580 -0.034288 -0.040159 -0.031933 0.032354 0.013131 -0.026459 0.042300 0.001304 -0.045486 0.021972 -0.005840 0.029128 0.035338 0.002934 -0.008151 -0.010615 0.006740 -0.013830 -0.027216 -0.006754 -0.000021 0.027732 -0.024081 -0.003626 0.001435 0.006621 0.015083 0.022920 0.028650 -0.026571 -0.032396 -0.009810 -0.005671 -0.017244 -0.051395 -0.005892 0.009744 -0.017121 -0.037223 -0.022410 -0.028153 -0.013865 -0.015538 -0.005750 0.041618 0.013021 0.019345 0.016697 -0.028274 0.021709 0.003404 -0.006436 -0.017582 -0.006046 -0.039896 -0.049116 0.042388 -0.041391 0.012523 -0.018242 0.001083 -0.019966 0.034014 -0.006640 0.004902 0.038620 0.031172 -0.003998 -0.030462 -0.019187 0.043127 -0.012609 0.035871 -0.013283 0.006943 0.047073 0.032743 0.003115 0.002320 -0.030459 0.017858
sent_41 0.016356 -0.022448 -0.008104 0.052503 -0.024602 -0.025869 -0.034284 -0.064017 -0.059560 0.038724 -0.042894 -0.050434 0.026438 0.045854 0.026586 0.011725 -0.049499 -0.049341 -0.058093 0.017933 -0.011832 -0.007115 0.026696 0.018337 -0.000571 -0.021869 0.010481 0.033187 0.010817 -0.037470 0.013163 -0.038834 -0.010189 -0.013877 -0.019588 -0.059004 -0.061287 0.015090 0.033092 -0.008648 0.012015 0.027812 0.002964 -0.043521 0.037522 -0.003846 0.020099 -0.020489 0.004600 0.027341 0.012946 0.070935 -0.015206 -0.077997 0.007492 -0.024947 0.002054 -0.006553 -0.004883 -0.038867 0.055703 0.005269 -0.039448 0.002196 0.008507 0.082449 0.021147 0.070284 0.135352 -0.056496 0.024685 0.006256 0.020275 -0.008842 0.020557 0.021193 0.054047 0.017198 0.016395 0.029053 0.029847 0.057730 0.019085 0.079111 0.028671 0.085104 -0.020438 -0.004433 0.024855 0.021480 0.027728 -0.009279 0.050568 -0.026616 0.000341 -0.040632 0.033395 -0.047377 -0.038003 -0.077769
sent_42 0.040992 -0.046215 0.019730 -0.009494 -0.000201 0.000338 -0.029408 0.011112 -0.036026 0.021347 -0.008580 0.003935 -0.010535 -0.007196 0.023653 0.006414 -0.020379 -0.015292 0.009815 0.023706 0.000257 -0.014194 0.008532 0.031261 -0.035752 -0.024326 0.007171 -0.007275 0.017972 -0.010303 -0.017019 -0.023505 -0.004876 0.025917 -0.027377 0.002921 -0.018260 -0.014152 -0.029649 0.034020 0.006501 0.035758 0.030570 -0.019962 -0.001458 0.012927 0.017079 0.026715 -0.014365 0.001431 -0.002854 0.088637 0.031723 -0.022246 -0.008172 -0.008035 -0.004538 -0.021463 -0.009385 0.025132 0.036091 -0.048144 0.030452 -0.046270 -0.005634 0.002594 -0.010485 0.020143 -0.039978 0.020148 0.020226 -0.005774 -0.060275 -0.016058 0.012683 -0.001963 0.011541 0.014423 0.007209 -0.029692 -0.019203 0.021649 -0.021171 -0.010851 0.024949 0.014055 -0.019517 0.034425 -0.007805 0.004524 0.018555 -0.001484 0.001447 0.022230 0.051751 -0.032738 -0.007530 0.004248 0.034745 -0.049127
sent_43 -0.022342 0.026875 -0.012409 0.017594 0.000343 -0.037149 0.004972 0.000377 -0.008948 -0.026016 0.007255 -0.022794 0.000435 0.034681 0.011497 -0.029502 -0.002274 0.005562 0.000447 0.028931 -0.009140 -0.003080 0.011396 0.008119 -0.007221 -0.003812 -0.017062 0.013894 0.001233 -0.023398 -0.015058 -0.037823 -0.007475 -0.024320 -0.000428 -0.007645 -0.028870 -0.008449 0.000558 -0.000091 -0.003409 -0.013542 0.001510 -0.028434 0.013366 0.003369 0.003387 0.003302 0.008051 0.003848 -0.015256 -0.016036 0.007291 -0.013731 0.008251 -0.023868 0.027135 -0.024580 -0.003100 -0.024983 0.008077 -0.034625 -0.016899 -0.008317 0.004503 0.011660 0.015261 0.019325 0.010142 -0.029766 -0.003029 -0.004995 0.012348 0.001175 -0.008568 0.002688 -0.003826 -0.010181 0.013555 0.019601 0.023829 0.012646 0.013186 0.019920 0.000876 -0.003032 -0.005994 0.002969 -0.013613 0.039995 0.015762 0.025089 0.030749 -0.017743 -0.013540 -0.011461 0.018766 -0.003089 -0.003222 0.022054
sent_44 0.006929 0.012070 -0.002598 -0.011407 -0.030652 -0.011131 -0.037304 0.017720 0.000138 0.017794 0.000806 -0.010262 0.029831 0.013174 0.029115 -0.025295 0.033268 0.023695 -0.010807 0.005526 -0.004726 0.039420 0.067321 -0.022076 -0.035155 0.001204 -0.018982 0.004703 -0.038727 -0.037434 -0.020793 0.005565 0.006248 -0.009469 0.034954 -0.038059 -0.067547 -0.014369 0.035298 0.010758 -0.060334 -0.000926 0.013741 -0.007055 -0.019246 0.001156 -0.012247 -0.048907 0.008561 0.013205 0.001559 -0.019143 -0.036546 -0.064284 0.013465 0.019912 0.004137 -0.024065 0.025580 -0.009484 0.022298 -0.020025 0.010381 -0.015250 0.022650 0.009826 0.033335 -0.025164 0.000482 0.047114 -0.010158 0.046199 0.012793 0.024889 -0.064964 0.024025 0.016484 0.014589 0.018223 0.030586 0.002386 0.029339 0.013709 -0.016624 -0.040741 -0.009535 0.004589 -0.037994 0.019425 0.007366 -0.014388 -0.023377 0.033196 -0.035484 0.049163 -0.044674 0.022604 -0.003408 0.014813 0.031180
sent_45 0.024044 -0.055420 0.008847 0.009140 -0.000960 -0.000521 -0.026546 0.009175 -0.022555 0.032009 -0.004289 0.002897 0.025315 0.012707 0.030149 -0.006171 -0.037281 -0.007542 0.010403 0.018460 -0.013886 -0.016530 0.022984 0.032942 -0.019429 -0.004690 0.002032 -0.008609 0.016765 -0.015162 -0.014364 0.002196 -0.008786 0.009794 -0.005315 -0.004052 -0.006949 -0.010692 -0.034201 0.041991 -0.026887 0.041679 0.031494 -0.024937 0.009822 0.003839 -0.002736 0.034998 -0.015568 -0.001379 -0.008254 0.085614 0.047271 -0.026594 -0.008056 -0.017619 0.006046 -0.011286 -0.010065 0.007100 0.021175 -0.048791 0.027733 -0.053097 -0.022023 0.005041 -0.021323 0.031385 -0.033535 0.001227 0.031914 -0.020711 -0.046875 -0.019672 0.021663 -0.007841 0.012598 -0.011324 -0.011647 -0.047694 0.000751 0.036269 -0.023216 -0.006692 0.032503 0.040836 -0.027725 0.062383 -0.021229 0.001975 0.045814 0.022179 0.001424 0.026001 0.026477 -0.034420 -0.004733 0.017171 0.026081 -0.047345
sent_46 -0.014435 0.029263 -0.045276 0.030674 -0.010447 -0.040161 -0.005383 -0.014087 0.032485 0.002269 -0.009631 -0.028379 -0.007991 0.066750 0.011798 0.036852 -0.002559 0.027886 -0.003186 0.011853 0.022235 -0.044575 0.045977 0.020367 -0.028447 -0.013635 0.003434 0.027772 0.028196 -0.005198 -0.027714 -0.033460 -0.008905 -0.056276 0.040177 -0.005753 -0.045282 0.020190 0.008382 0.005854 0.021226 -0.041053 -0.019549 -0.023631 0.051481 -0.006948 0.034341 0.022773 -0.023146 0.018443 0.031329 -0.000099 -0.000252 -0.020084 -0.009741 -0.011716 0.016195 -0.019411 0.008268 -0.042376 0.002756 -0.104038 -0.024896 -0.004245 0.051960 0.029881 -0.037552 -0.004638 0.009366 -0.053712 0.023623 0.000370 0.030557 -0.023637 0.005164 0.020643 -0.004817 -0.005844 -0.008599 0.038653 0.027083 0.011208 0.054499 -0.005368 0.029892 -0.017647 0.016967 -0.002963 0.002161 0.040128 -0.004826 -0.029970 0.021078 -0.028885 -0.027939 -0.008541 -0.019845 -0.004887 -0.003828 0.013114
sent_47 -0.028600 0.004581 0.003183 0.034061 0.013857 0.002746 -0.043193 0.045749 0.006613 0.014960 -0.036767 -0.012683 -0.001282 0.043078 0.012270 0.037410 -0.062407 -0.018538 -0.074325 0.007683 0.015794 -0.038438 0.044625 0.109426 0.022430 0.018982 -0.040345 0.021174 -0.003506 -0.038541 -0.035849 -0.012233 -0.007017 -0.029080 0.015517 -0.042857 -0.122380 0.018294 -0.015196 0.036695 -0.001936 -0.026670 0.065055 -0.026043 0.078389 -0.021309 -0.012285 0.033855 -0.015235 -0.018662 -0.088071 0.050151 0.023476 -0.091885 -0.016320 0.007149 0.027566 -0.022847 0.034526 -0.034915 0.018532 -0.069441 0.008033 -0.012655 0.042149 0.010503 -0.019084 0.037115 0.024295 -0.034128 0.022734 -0.008671 0.038655 -0.019290 -0.024762 0.013276 -0.015624 -0.008179 0.016166 0.034887 0.075514 0.031712 0.027868 0.067589 0.080704 0.045490 -0.000839 0.046304 -0.024736 0.033871 0.051161 0.003077 0.003613 -0.056172 0.023722 -0.066957 -0.018855 -0.018963 -0.026020 -0.028140
sent_48 -0.008307 0.043227 0.023097 -0.032086 0.030925 -0.088445 0.047289 0.033935 0.007362 0.033858 0.042110 -0.012075 0.018376 0.045903 -0.007644 -0.016146 -0.064164 0.009355 0.090013 0.043147 -0.008583 0.039376 0.045243 -0.055729 -0.059527 0.058270 0.043601 0.025686 0.050482 0.003730 0.025614 -0.054098 0.025672 -0.008310 -0.019808 -0.014413 0.022459 -0.021261 -0.051529 0.066686 -0.008812 0.023439 -0.057573 -0.041523 -0.004502 -0.005005 0.052770 0.053345 0.030466 0.023850 0.008253 0.018818 -0.008984 -0.003692 -0.025367 -0.034853 0.053579 0.003385 -0.051000 -0.006199 0.028329 -0.072900 -0.083935 -0.059074 -0.016049 -0.017887 -0.000665 0.030569 -0.021667 0.018912 0.002453 0.067502 -0.069535 -0.025021 0.026161 -0.020268 0.044477 -0.062764 0.030328 -0.032405 -0.082341 0.082588 0.034908 -0.027189 0.055055 -0.004771 0.015831 -0.001396 -0.013739 -0.007423 -0.072690 -0.017732 -0.002206 0.073213 0.018774 -0.042282 0.038724 0.072471 -0.048062 -0.030606
sent_49 0.034857 -0.023391 0.031224 -0.035739 0.018899 -0.002935 0.055943 -0.094046 0.020188 -0.009174 -0.022216 -0.033841 -0.002382 -0.059957 -0.004036 -0.012660 -0.040156 0.009579 -0.061201 0.036364 0.012164 0.029829 -0.027678 -0.053311 0.033191 0.038696 -0.019411 0.029546 -0.042605 -0.000213 -0.001064 -0.014630 0.002942 -0.026737 -0.005995 0.012242 -0.114235 0.008365 0.007785 -0.050638 0.059753 0.040392 -0.015705 0.000363 -0.049512 -0.023357 0.032189 -0.040864 -0.006112 0.076140 -0.007345 -0.011924 -0.070700 0.086490 0.036368 0.001636 0.081360 0.037899 0.024629 -0.021787 0.028134 0.106818 -0.104817 0.034550 0.023854 0.007176 0.066480 -0.003967 0.016476 0.044598 -0.004575 -0.002489 -0.013430 0.040030 -0.022172 0.048542 -0.039473 0.029160 0.087900 0.047965 -0.002119 0.048541 0.019029 0.009239 -0.037822 0.027353 -0.046027 -0.033183 0.050794 0.039341 -0.070860 -0.012706 0.012352 0.022526 -0.000999 0.007569 -0.026473 -0.036829 -0.057068 0.003062
sent_50 -0.039929 -0.037955 -0.000126 0.038464 -0.021373 0.000926 -0.043410 0.032176 -0.031348 0.034454 -0.010157 -0.018223 0.020068 0.046429 0.019743 0.067666 -0.046620 -0.054540 -0.042871 0.022597 -0.009373 -0.026750 0.053320 0.098912 0.008849 -0.020717 -0.060847 -0.022084 0.031465 -0.020991 -0.032903 -0.024609 -0.047568 0.029151 0.001255 -0.035867 -0.095448 0.022472 -0.008857 0.036036 -0.035628 0.003476 0.052522 -0.010510 0.039008 -0.020899 -0.007763 0.047551 -0.019995 -0.008838 -0.071585 0.103733 -0.008166 -0.047736 0.009553 0.068469 0.015529 -0.042568 -0.004649 0.020489 0.037031 -0.028627 0.032530 -0.011015 -0.027936 0.051784 -0.012457 0.021424 0.029635 -0.022858 0.049425 -0.017692 -0.059617 0.005683 -0.000981 0.003811 -0.066806 -0.016373 0.018507 0.041359 0.023087 0.041311 0.003908 -0.003812 0.071350 0.072092 -0.030977 0.054762 -0.032538 0.020883 0.084961 0.006944 0.014378 0.000747 0.034594 -0.043768 -0.026890 -0.009745 -0.014852 -0.045841
sent_51 0.030396 -0.107914 0.049570 0.036533 -0.033913 0.032225 -0.141677 0.042531 -0.082037 0.005097 -0.075499 0.017337 0.061520 0.080034 0.032729 -0.009200 -0.014036 -0.035317 -0.105165 -0.022122 -0.013063 -0.031415 0.020459 0.106732 0.088616 -0.016057 -0.021093 0.051802 0.045689 -0.039635 -0.094644 -0.018889 -0.017398 -0.033254 0.009366 -0.072202 -0.129129 0.073163 -0.072199 0.104528 -0.023072 -0.018211 0.030050 -0.071216 0.062179 0.010122 -0.049368 -0.021130 -0.080980 0.028978 -0.045340 0.138816 0.039329 -0.027221 0.016921 -0.030110 0.032929 0.050039 0.044551 -0.001463 -0.004800 -0.147157 0.017647 -0.049127 0.049661 -0.016477 -0.040292 0.040154 -0.002641 -0.117609 0.081157 0.011982 0.039966 0.013736 -0.063866 0.070425 0.048217 0.044790 -0.071926 0.029133 0.054891 0.033853 -0.045381 -0.010993 0.131797 0.051302 0.020333 0.141526 -0.105081 0.090236 0.132698 -0.071508 0.087526 -0.102787 -0.011530 -0.003379 -0.017876 -0.099870 -0.034201 -0.073713
sent_52 -0.019096 -0.029238 0.069844 -0.028046 -0.063508 0.023037 -0.131611 0.028360 -0.204179 0.006186 -0.089411 0.008641 0.073761 0.050480 -0.120594 0.057218 -0.024505 -0.155299 -0.095763 -0.089583 -0.071760 -0.054729 0.091324 0.245326 0.173320 0.180095 -0.105646 0.052854 0.041646 -0.016591 -0.093279 -0.037010 -0.023910 -0.030765 0.006732 -0.128308 -0.233332 0.007180 -0.027536 0.118365 -0.004907 -0.070411 0.044162 -0.022286 0.074331 -0.022484 -0.082294 0.066797 -0.061103 0.069529 -0.170240 0.110212 0.063003 -0.164309 -0.089227 -0.006403 0.123268 0.127515 0.113058 -0.054624 -0.072538 0.015739 0.064494 -0.099284 -0.024337 -0.090922 0.029465 0.085762 0.171446 -0.123083 0.203860 0.111491 0.085449 -0.036120 0.040221 0.098623 0.106427 -0.014708 -0.053958 0.087995 0.108976 0.081545 -0.083248 0.037497 0.169767 0.041089 -0.013082 0.187962 -0.142697 0.051982 0.103435 -0.051380 0.078237 -0.167078 -0.042334 -0.046192 0.023627 -0.106013 -0.086006 0.001108
sent_53 0.034999 -0.033405 0.055788 -0.027191 -0.057293 0.006847 -0.136081 0.066763 -0.083277 0.040013 -0.100389 -0.040826 0.031084 0.125393 -0.056195 0.103138 -0.070578 -0.091958 -0.079593 0.005766 -0.119624 -0.071654 0.138490 0.238666 0.070000 0.084976 -0.077183 -0.057718 0.081371 -0.066523 -0.044820 0.019860 -0.058708 -0.008501 -0.010434 -0.094052 -0.239761 -0.046338 -0.029315 0.063998 0.048640 -0.076044 0.093994 -0.026627 0.071836 -0.000771 -0.023791 0.036180 -0.107412 -0.013219 -0.108306 0.096119 0.103667 -0.163654 -0.021296 -0.016837 0.099428 0.028274 0.059248 -0.060262 -0.071721 0.003208 0.032314 0.006808 0.017563 -0.059549 -0.033946 0.028269 0.112541 -0.092072 0.182862 0.047754 -0.024207 -0.072686 -0.062273 0.157764 0.003152 0.009804 -0.032674 0.009152 0.120931 0.003772 -0.084446 0.038057 0.111869 0.087058 -0.049614 0.124340 -0.144901 0.143592 0.073711 0.072987 -0.005094 -0.117624 0.035301 0.006486 -0.054210 -0.048441 -0.094090 0.007912
sent_54 0.049613 -0.023562 0.166480 0.068556 0.055204 0.009401 -0.086946 0.053431 -0.104529 -0.006094 -0.079097 0.056660 0.172434 0.073425 -0.044421 0.025908 -0.035430 -0.094678 -0.058663 0.038239 -0.016254 -0.103814 -0.024734 0.190394 0.131314 0.107707 -0.074251 0.036915 0.035817 0.008912 -0.039197 -0.184067 -0.032297 -0.035052 0.015147 -0.109667 -0.131094 -0.021727 -0.047409 0.094926 -0.013257 -0.002227 0.167669 -0.047524 0.080215 0.041630 -0.119174 0.031023 -0.053120 0.043166 -0.196927 0.183358 0.063862 -0.116022 -0.098552 -0.090170 0.098724 0.039602 0.058647 -0.097720 0.001303 -0.021380 -0.037531 -0.130715 0.026572 -0.083785 -0.017035 0.188838 0.072817 -0.111491 0.119880 0.011424 0.080778 -0.080338 0.050821 0.021589 0.105585 -0.121137 0.045051 0.048607 0.098077 -0.013195 0.022577 0.170066 0.154378 0.087848 0.029428 0.235662 -0.113195 0.058635 0.113787 0.027077 0.025770 -0.077757 -0.037106 -0.142018 -0.001420 -0.027460 -0.088399 -0.159099
sent_55 0.011546 -0.079965 0.076817 0.008028 -0.062728 -0.022272 -0.103918 -0.043028 -0.144422 0.006065 -0.108450 -0.034594 0.069930 0.051254 -0.053209 0.034345 -0.048630 -0.128130 -0.166808 -0.059955 -0.085647 -0.021266 0.039094 0.225031 0.160887 0.083249 -0.136315 0.087350 0.034880 -0.052441 -0.092010 -0.016654 0.002568 0.003850 -0.020028 -0.132601 -0.265731 0.067894 -0.038040 0.108808 0.010826 -0.021889 0.044934 -0.020403 0.058252 -0.010211 -0.044400 -0.022112 -0.042444 0.026884 -0.108224 0.098694 0.025377 -0.084168 -0.006320 -0.009156 0.082841 0.104318 0.071888 -0.072764 -0.033468 0.056091 0.011148 -0.029059 -0.015090 -0.014112 0.016106 0.073825 0.159598 -0.127365 0.134814 0.062453 0.076482 0.016029 0.032101 0.096741 0.107906 0.011266 -0.021519 0.080283 0.130184 0.066448 -0.037149 0.085724 0.094407 0.089772 -0.041098 0.155466 -0.062721 0.101714 0.088068 -0.053819 0.086603 -0.094166 -0.045681 -0.029191 0.002017 -0.105977 -0.101427 -0.030858
sent_56 0.003470 0.009669 -0.043788 0.013226 -0.025847 0.005346 -0.007001 0.013252 0.043006 -0.025299 0.012070 0.003542 -0.004819 -0.018054 0.010559 0.026882 -0.033844 0.008556 -0.001934 -0.014181 0.020202 -0.009730 -0.010765 -0.022952 -0.008863 -0.017270 0.020565 0.014564 0.053559 0.001119 0.030349 0.000983 -0.020809 -0.031441 0.022840 0.042376 0.003311 0.029929 0.013826 -0.011632 0.033324 0.009135 0.041200 -0.046354 0.012941 -0.001439 0.053907 -0.015859 -0.035723 0.027956 -0.016539 0.032217 -0.008182 0.008687 0.019944 0.025891 -0.003088 -0.021815 0.011561 0.025135 0.024822 -0.095555 0.015739 0.037057 0.045769 -0.004105 -0.014874 -0.003917 -0.010630 -0.017166 -0.009168 -0.031508 0.035173 -0.001865 -0.037290 0.014032 -0.032077 0.013745 0.039294 0.001514 0.040272 0.021868 -0.002761 -0.003408 0.036708 0.012669 0.012770 -0.015456 -0.026159 0.012900 0.016899 -0.018257 -0.022227 -0.034288 -0.008792 -0.020735 -0.029963 -0.031783 0.022444 -0.025359
sent_57 0.020035 0.007365 0.001288 0.002705 0.008817 0.000775 0.026370 -0.008476 -0.007240 -0.009481 -0.027180 -0.018736 0.008566 -0.010357 -0.019665 -0.018499 0.000585 -0.002068 -0.007856 -0.041321 0.009387 -0.012038 -0.016645 -0.001316 0.025818 0.020396 -0.040740 0.023761 0.010632 0.009350 -0.001840 0.007741 0.019991 0.005511 -0.002757 -0.005620 -0.007721 0.021876 -0.002933 -0.027176 0.010665 -0.019852 0.015508 -0.010662 0.003803 0.004342 0.002886 -0.008594 0.015409 0.020902 -0.002440 -0.012044 -0.019540 -0.000752 0.011477 0.003541 0.004147 0.022115 -0.005402 -0.004387 -0.014673 0.036292 0.009687 -0.005241 0.011402 0.007968 0.019391 0.015323 0.015703 -0.002222 -0.002918 0.017890 0.041677 -0.008796 0.017056 -0.002700 0.022375 -0.014913 -0.012192 0.002783 0.002959 0.026567 -0.008908 0.037696 -0.005747 0.020221 -0.017025 0.013580 0.019716 -0.008685 -0.011423 -0.012791 0.007190 0.002568 -0.028195 -0.015965 0.024319 -0.015784 -0.018461 0.000842
sent_58 -0.036067 0.031133 -0.074205 0.048557 -0.002870 0.008781 -0.049070 0.027060 0.027807 0.037557 0.052948 -0.051585 -0.000074 0.046221 0.054912 0.047531 0.018717 0.015324 0.003774 0.027013 0.012375 -0.030137 0.093477 -0.026859 -0.017925 0.015873 0.013933 0.004983 -0.015791 -0.023503 0.032020 0.048128 0.013027 -0.040269 0.064220 -0.042723 0.033854 0.022358 0.078098 -0.006100 -0.037954 0.000517 -0.013434 -0.023796 0.080292 -0.005384 -0.031507 -0.027631 0.000663 0.013404 0.069455 0.022140 0.030277 -0.084432 -0.033379 -0.050089 -0.021134 -0.057687 0.023086 -0.063135 0.023845 -0.097173 -0.086552 0.008708 0.010924 0.053142 -0.043795 0.018965 0.037928 -0.014516 -0.007306 0.004644 0.048530 0.025199 0.014642 -0.000805 -0.018097 -0.029912 0.040303 0.006801 -0.004541 -0.007278 0.020454 -0.001183 -0.031539 0.021627 0.057550 -0.056009 0.055388 -0.029340 0.029714 -0.011979 0.033494 -0.035640 -0.012924 -0.065262 0.039421 -0.011366 0.019245 0.008990
sent_59 0.078731 -0.086334 -0.033710 -0.053830 -0.022273 -0.061493 -0.129035 -0.054943 0.018460 -0.001169 -0.032351 -0.031256 -0.092869 -0.086847 0.003641 0.038699 -0.066758 -0.018146 -0.086741 0.001015 0.049186 -0.046816 -0.013778 -0.000728 0.100115 -0.079621 0.060082 0.018237 0.066185 -0.034896 0.039809 0.070438 0.096138 -0.058320 -0.075296 -0.025437 -0.062732 0.044134 -0.043549 0.002342 0.069450 0.033307 -0.061292 0.035421 -0.050428 0.078429 0.061250 -0.081899 -0.066649 -0.025262 -0.004471 -0.057026 -0.092872 0.050671 0.029204 -0.018170 0.017344 -0.004336 0.047019 -0.118150 -0.029834 -0.061269 -0.162538 0.124352 0.063416 0.057860 0.021433 -0.085344 0.062532 0.003586 0.029095 -0.056972 0.020618 0.155763 -0.166882 0.089904 -0.097389 0.133016 0.112964 0.068846 0.041993 -0.006542 -0.008610 -0.032584 -0.020667 -0.090269 -0.017819 -0.056559 0.005159 0.109628 -0.046068 -0.084318 0.031517 -0.001251 0.022194 0.078294 -0.057646 -0.125180 -0.050676 0.033718
sent_60 0.062476 -0.068968 -0.016463 -0.037638 -0.018374 -0.040718 -0.088753 -0.053420 0.023707 -0.002650 -0.029454 -0.021674 -0.073026 -0.083923 0.000477 0.036606 -0.058390 -0.009848 -0.080268 0.005219 0.037866 -0.040082 -0.025584 0.004661 0.084275 -0.061284 0.046504 0.017069 0.050909 -0.024991 0.026871 0.054913 0.074863 -0.047341 -0.056731 -0.014047 -0.054134 0.030947 -0.032735 -0.007429 0.062364 0.030822 -0.045221 0.030799 -0.041691 0.052617 0.051012 -0.061508 -0.061683 -0.005849 -0.001345 -0.038986 -0.072112 0.048483 0.028523 -0.010100 0.017485 -0.000923 0.040472 -0.082188 -0.012623 -0.041993 -0.136160 0.102128 0.050964 0.035048 0.015692 -0.074531 0.051963 0.009035 0.026060 -0.061182 0.006529 0.130374 -0.128751 0.077329 -0.085382 0.104889 0.090304 0.059620 0.038314 -0.008363 -0.001248 -0.028981 -0.019882 -0.074818 -0.018449 -0.057852 0.007267 0.085746 -0.044296 -0.065552 0.013902 -0.005822 0.022427 0.062592 -0.061729 -0.099076 -0.040769 0.028766
sent_61 0.073836 -0.067105 -0.006139 -0.060926 -0.012608 -0.008903 -0.056797 -0.050963 0.003692 -0.009215 0.001240 -0.028741 -0.062547 -0.080325 -0.004342 0.039484 -0.054618 -0.033719 -0.081690 0.015523 0.045723 -0.038144 -0.032266 -0.004838 0.059316 -0.065127 0.046156 0.006399 0.006203 0.010205 0.005236 0.032681 0.072326 -0.030015 -0.063049 0.001282 -0.065378 0.021049 -0.017372 -0.001453 0.077755 0.037888 -0.072780 0.062538 -0.057975 0.068085 0.036513 -0.076714 -0.058955 -0.008770 0.025094 -0.038492 -0.086821 0.063052 0.032476 -0.010073 0.002723 0.008016 0.044690 -0.042273 -0.006597 -0.022984 -0.091606 0.104074 0.020446 0.029814 0.014804 -0.077901 0.035179 0.024114 0.005062 -0.010105 -0.005414 0.130902 -0.118245 0.066742 -0.066862 0.112994 0.098218 0.055090 -0.001973 -0.026125 -0.021884 -0.038340 -0.032193 -0.084895 -0.021677 -0.052110 0.018237 0.062924 -0.085789 -0.070475 0.018030 0.026851 0.021937 0.067401 -0.051437 -0.103434 -0.020321 0.013876
sent_62 0.029989 0.007914 0.006055 0.021022 0.028770 0.011323 0.015371 0.017906 0.005628 0.028330 -0.002876 -0.024744 0.035931 0.010540 -0.009510 -0.007494 -0.010059 0.017043 -0.040042 -0.024608 0.056107 -0.006896 -0.004656 -0.018824 0.017204 0.044573 -0.043259 0.038964 0.024530 -0.008775 -0.001872 0.007399 0.022597 -0.016700 0.030916 -0.010531 -0.030303 0.000745 -0.039432 -0.035872 -0.030292 -0.032021 0.013775 0.001907 0.028107 0.000027 0.029844 0.008081 0.007162 0.019516 -0.003428 -0.015027 -0.030611 -0.003572 0.010869 -0.024610 0.030558 0.011345 0.009498 -0.025137 0.006364 0.038156 0.017719 -0.052433 0.035257 0.005522 0.019278 0.007398 0.009736 -0.005332 -0.016103 0.031770 0.031055 -0.032794 0.029173 0.018807 0.001710 -0.028404 -0.002855 -0.021454 -0.038156 0.045802 0.002977 0.043575 0.004227 0.062904 -0.054163 0.030362 0.045857 -0.029129 -0.009912 0.016922 0.040534 0.006100 -0.053416 -0.034277 0.023216 -0.031707 -0.033353 -0.002089
sent_63 0.011832 0.006785 0.016267 -0.024010 0.005368 0.022663 -0.032339 -0.000008 0.021457 -0.007177 -0.007519 -0.002872 -0.005415 0.015402 -0.010984 0.027054 -0.039126 -0.006788 -0.013256 0.019419 -0.013420 0.001586 0.005853 -0.004615 0.002959 0.025602 -0.005098 -0.001905 -0.041434 -0.015394 0.006576 0.007410 -0.013162 -0.017989 -0.001322 0.016761 -0.014749 0.015497 -0.003010 0.004335 0.056395 0.025126 0.012525 -0.029364 0.016936 -0.036549 -0.011092 -0.031832 0.000386 -0.006046 -0.009266 0.026203 0.028888 -0.010082 -0.032869 -0.021386 -0.009907 -0.010206 0.003806 -0.036556 -0.013622 -0.028523 -0.041696 0.014779 0.006517 0.011397 -0.002770 0.014134 -0.006884 -0.010094 -0.031111 -0.013131 0.033400 0.010613 0.021910 0.001163 -0.030323 0.007046 0.046147 -0.003587 0.014593 -0.024503 0.002000 0.034154 0.019460 0.012863 0.025250 0.000322 0.029386 -0.006698 0.010899 -0.019778 -0.031443 0.001620 0.030876 -0.009143 -0.025538 0.012348 -0.006872 -0.043344
sent_64 0.051711 -0.068679 -0.017093 -0.012924 -0.000961 -0.006848 0.078224 -0.063651 -0.061074 -0.004459 -0.071568 -0.011728 0.045296 -0.008015 -0.008327 0.034211 -0.086155 -0.018914 -0.054459 -0.024986 0.079519 -0.119059 -0.073280 -0.029636 0.056743 -0.002336 -0.028255 0.082442 0.058610 0.025431 -0.006536 -0.035422 -0.011592 0.018638 -0.002630 -0.028886 -0.011844 -0.015371 0.001540 -0.082026 0.038063 -0.022211 0.009158 -0.093588 -0.042308 0.013761 0.118143 0.002774 -0.007843 0.130587 -0.036527 -0.003128 -0.018098 -0.006239 0.026671 -0.021110 0.119987 -0.002728 0.029345 -0.044900 -0.047042 0.052073 -0.060417 -0.022926 0.099434 0.018882 -0.006268 0.058173 0.057302 -0.017316 0.053905 -0.001632 0.056546 -0.045376 0.030667 0.123004 -0.017781 -0.036486 0.058283 0.006737 0.033537 0.083128 -0.020460 0.093271 0.035053 0.023475 -0.141010 -0.010786 -0.018929 0.046265 -0.020954 -0.018422 0.060892 0.008309 -0.154972 -0.071429 0.060311 -0.071573 0.025211 -0.064083
sent_65 0.008421 0.024721 -0.010620 -0.005305 -0.054268 -0.056810 -0.048508 -0.029991 0.024312 0.027508 -0.155438 -0.075130 -0.058708 0.064563 -0.000005 0.077799 -0.056551 0.026202 -0.094026 -0.075200 -0.115588 -0.033557 0.102696 0.095414 0.011679 0.032681 -0.110608 -0.013438 0.137894 -0.076473 0.063271 0.086995 0.005754 -0.005238 0.007038 -0.091613 -0.162746 -0.011712 -0.046314 0.004694 0.023751 -0.048713 0.055275 -0.076095 0.078185 0.028058 0.077482 0.032685 -0.019558 -0.014841 -0.042390 -0.034378 -0.007733 -0.121448 -0.000818 0.000003 0.073323 -0.025137 -0.001312 -0.149271 -0.060236 0.016516 -0.109725 0.091285 0.101120 0.054067 0.003203 -0.007788 0.116440 -0.076555 0.053460 -0.036445 0.063463 -0.069131 -0.078012 0.171697 -0.037572 -0.035696 -0.013096 0.036487 0.071918 0.121612 0.028765 0.079414 0.084225 0.144046 -0.072996 -0.009164 -0.017536 0.168274 0.075250 0.036951 0.044219 -0.074905 0.007691 0.005927 0.037942 -0.084007 -0.113061 0.058566
sent_66 0.026790 0.024633 0.044949 -0.029636 -0.062891 -0.023614 0.010477 -0.014716 0.004949 0.036726 -0.108128 -0.073872 0.001628 0.068881 -0.007351 0.076105 -0.043706 0.009368 -0.103006 -0.047780 -0.079973 -0.015138 0.063685 0.067962 -0.001450 0.036469 -0.115277 -0.034279 0.075787 -0.016707 0.033927 0.070663 -0.018264 -0.011474 -0.006846 -0.056395 -0.146352 -0.015733 -0.029184 0.015393 0.030007 -0.026496 0.012871 -0.047017 0.045432 0.040051 0.040859 0.002966 -0.013280 -0.034476 -0.013695 -0.016996 -0.031465 -0.066337 0.015539 0.011868 0.077880 0.017310 -0.007087 -0.077694 -0.045568 0.053363 -0.021176 0.043905 0.019086 0.035744 -0.007988 -0.015716 0.097407 -0.087951 0.012289 0.018149 0.032559 -0.067568 -0.045086 0.136229 0.009427 -0.060359 -0.024458 0.017250 0.036095 0.101907 0.007183 0.052166 0.050892 0.145159 -0.069202 0.034668 0.006541 0.097920 0.045409 0.045873 0.037567 -0.037964 0.003743 0.020268 0.071234 -0.073892 -0.094218 0.029973
sent_67 -0.016114 -0.070895 -0.027084 0.070911 -0.063260 -0.024315 -0.082131 -0.033802 0.025144 0.030687 -0.086931 0.011849 -0.021769 -0.070019 0.030908 0.050522 -0.038706 0.006039 -0.067882 0.015460 0.012860 -0.049266 -0.023696 0.044014 0.076422 -0.063292 -0.016281 0.025299 0.091654 -0.023605 0.023269 0.035559 0.037142 -0.037913 -0.006080 -0.047389 0.006747 0.008168 -0.020658 -0.049898 0.006340 0.030166 0.026753 0.005342 0.010297 -0.015314 0.023872 0.039908 -0.044424 -0.012006 -0.070666 -0.009876 -0.044041 -0.014617 0.024397 0.023137 0.011210 0.001836 -0.004379 -0.081182 0.006444 0.001145 -0.108973 0.081294 0.019137 0.016542 0.006759 -0.016393 0.081062 0.022779 0.095359 -0.146172 -0.009377 0.086173 -0.053917 0.096143 -0.091191 0.026676 0.039798 0.066985 0.111385 0.032093 0.042518 0.015687 0.013185 0.028020 -0.049221 0.001787 0.013247 0.077450 0.086336 -0.009034 -0.002040 -0.072091 0.006500 -0.005730 -0.058681 -0.094859 -0.054635 0.011175
sent_68 -0.012136 -0.042936 -0.025274 0.031326 -0.064388 0.013758 -0.076846 -0.019245 0.034880 -0.012441 -0.095327 0.017853 -0.015728 -0.153303 0.023967 -0.013754 -0.013446 0.010514 -0.065734 -0.013626 0.060163 -0.052511 -0.023566 0.024149 0.067017 -0.018527 -0.045390 0.038073 0.074701 -0.007599 -0.012903 0.024006 0.059281 -0.061620 -0.004602 -0.041556 0.049300 -0.002308 -0.025019 -0.104291 0.009029 -0.020868 0.040166 0.074981 0.023304 0.025893 0.013691 0.044262 -0.016957 0.019805 -0.069308 -0.059698 -0.112038 -0.015283 0.042413 0.022450 0.012899 0.022900 0.004254 -0.067864 0.017231 0.022787 -0.068526 0.041260 0.034283 -0.010075 0.022852 -0.043237 0.037541 0.049779 0.069184 -0.126446 0.036144 0.091483 -0.063566 0.136308 -0.073828 0.015845 0.039106 0.091447 0.067321 0.017244 0.012046 0.031789 -0.031591 0.002836 -0.049679 0.033015 0.038301 0.056602 0.086866 0.006066 0.034813 -0.119949 -0.043719 -0.004175 -0.046164 -0.146813 -0.016644 0.060430
sent_69 -0.007231 -0.025741 -0.025309 0.030186 -0.061520 0.017248 -0.047826 -0.013309 0.012775 -0.006832 -0.065197 0.010140 -0.025169 -0.143906 0.010159 0.001372 0.005252 0.012022 -0.055668 -0.031776 0.032769 -0.040195 -0.023050 -0.002783 0.060226 -0.011831 -0.046710 0.023991 0.061793 0.008919 -0.000177 0.031628 0.058443 -0.050475 0.023103 -0.040576 0.045411 -0.009465 -0.008946 -0.105844 0.009341 -0.006625 0.019789 0.098878 0.009905 0.018401 0.009331 0.017692 0.004340 0.019853 -0.024739 -0.074990 -0.100138 0.006785 0.032479 0.020696 0.015348 0.028426 0.018178 -0.030113 -0.002357 0.053262 -0.040423 0.045968 0.001208 -0.038338 0.012488 -0.053139 0.029679 0.050796 0.042589 -0.081378 0.031521 0.082986 -0.039369 0.119025 -0.049346 0.009524 0.030402 0.066599 0.034630 -0.004594 0.011896 -0.002977 -0.033132 0.014488 -0.043590 0.010100 0.040459 0.022652 0.047121 -0.006142 0.032491 -0.094940 -0.041885 -0.007084 -0.040495 -0.123034 -0.009104 0.083475
sent_70 0.026452 -0.213932 -0.069459 -0.008863 -0.082397 -0.052098 -0.140387 -0.021914 -0.012192 0.022431 -0.082767 0.014793 -0.006600 -0.180754 0.104247 0.116127 -0.124400 -0.048529 -0.085980 0.099428 0.081557 -0.051565 0.034155 0.001121 -0.001563 -0.169385 0.050322 -0.104243 0.131338 -0.035920 0.102727 0.048326 -0.000751 -0.130432 0.018394 -0.061653 0.110217 -0.040619 0.127805 -0.026153 0.046313 -0.015094 -0.071446 0.112893 -0.040327 0.110942 0.122849 -0.079491 -0.095331 -0.066215 -0.094398 -0.123753 -0.093565 -0.124388 0.073121 0.004691 -0.021522 -0.007384 0.037367 -0.048892 -0.034427 0.003043 -0.068894 0.177648 -0.114613 0.069316 -0.036531 -0.019615 0.192045 0.051864 0.148416 -0.195555 -0.103108 0.104799 -0.107367 0.199337 -0.153443 0.072549 0.085310 -0.006360 0.077410 -0.120288 0.026723 0.040166 0.083352 0.007724 0.007412 -0.008475 -0.072917 0.072554 0.077971 0.073800 0.072101 -0.145377 -0.113948 0.044903 0.030142 -0.126321 0.046245 0.038032
sent_71 0.067707 0.107743 0.052376 -0.098140 0.032586 -0.071351 0.034136 0.017185 0.059821 0.017014 -0.043934 -0.061493 0.001358 0.103722 -0.008780 0.002851 -0.000033 0.080647 0.004163 -0.046702 -0.004839 -0.064952 0.026580 0.005606 -0.017427 0.066726 -0.088402 -0.007179 0.053179 -0.017849 0.010714 -0.010706 -0.054982 0.000246 -0.026352 0.050785 -0.015228 0.022857 -0.013360 0.021166 0.044326 -0.063023 -0.017258 -0.109620 -0.006736 0.025369 0.060614 0.009616 -0.022343 -0.014523 -0.058773 0.065868 -0.016658 -0.000535 -0.002621 0.005216 0.000821 -0.031900 -0.075785 -0.071227 -0.062327 -0.076886 -0.038541 -0.019082 0.063131 0.045790 -0.002400 0.007599 0.002895 -0.002798 -0.026936 -0.044005 0.050116 -0.061899 -0.020527 0.009166 0.011165 -0.055825 0.045474 -0.034650 0.041791 0.043241 -0.014851 0.048860 0.072504 -0.001205 -0.007170 0.054934 -0.003177 0.130570 0.005555 0.003529 -0.004709 0.069075 -0.039680 0.036042 0.018994 0.018904 -0.034193 -0.056964
sent_72 0.086878 0.070793 0.058693 -0.118774 -0.007474 -0.090358 -0.003452 0.026515 0.036748 0.007371 -0.078435 -0.039420 0.025259 0.079379 -0.026806 0.000948 -0.017671 0.055279 0.037210 -0.040543 -0.021744 -0.044002 0.049014 0.016190 -0.008171 0.126842 -0.083526 -0.012630 0.087221 -0.031984 0.011099 -0.010314 -0.022467 -0.015979 -0.033472 0.030684 -0.010899 -0.006590 -0.020622 0.050387 0.042932 -0.065689 -0.010331 -0.119483 0.023393 0.052979 0.072098 0.047335 -0.044648 0.000298 -0.088709 0.038152 -0.050013 -0.053891 -0.002456 0.006004 0.017959 -0.052661 -0.069977 -0.115368 -0.064318 -0.034048 -0.056185 -0.008235 0.055699 0.042366 0.018167 0.044628 0.045710 0.005805 0.020032 -0.046637 0.047628 -0.082739 -0.058920 0.061201 -0.026314 -0.039218 0.057936 0.004707 0.044990 0.083108 -0.039272 0.073535 0.058292 0.027915 -0.052608 0.061481 -0.036536 0.133939 0.040552 0.058445 0.040326 0.042420 -0.015137 0.025430 0.028630 -0.025396 -0.063354 -0.018919
sent_73 0.066750 0.115310 0.048584 -0.063778 0.063580 -0.060580 0.018180 0.029706 0.080462 0.026095 -0.023359 -0.089311 0.006370 0.115432 -0.006203 0.017094 -0.008995 0.066995 0.002511 -0.019007 -0.004026 -0.070113 0.043482 0.027580 -0.023427 0.098073 -0.083667 -0.011435 0.086826 -0.037867 0.027364 -0.012433 -0.062300 -0.021713 -0.014666 0.066523 -0.023214 0.015497 -0.037989 0.009154 0.042423 -0.082678 0.004262 -0.123509 0.012454 0.039303 0.078179 0.019324 -0.023279 -0.036932 -0.052003 0.054707 -0.010071 -0.010269 -0.017250 0.002061 0.002648 -0.075828 -0.084378 -0.103996 -0.038682 -0.082183 -0.046282 -0.020995 0.082589 0.070715 -0.023425 0.006076 0.000755 -0.035599 -0.028963 -0.041831 0.059494 -0.063965 -0.037770 0.025419 -0.019689 -0.049714 0.043106 -0.022315 0.032395 0.049243 -0.006924 0.061874 0.095204 0.020889 -0.011398 0.072503 -0.010063 0.137442 0.025504 0.041714 -0.002131 0.057072 -0.059218 0.054577 0.015935 0.016072 -0.034571 -0.057623
sent_74 0.070472 0.067288 0.036703 -0.085385 -0.005862 -0.068339 0.012689 0.023864 0.020226 0.016810 -0.042519 -0.034350 0.010729 0.075699 -0.024008 0.016915 -0.008529 0.053221 0.028772 -0.046096 -0.031917 -0.024353 0.024046 -0.015510 -0.001467 0.073108 -0.059989 -0.019980 0.067583 -0.008937 0.035204 0.001554 -0.032306 -0.014057 -0.004067 0.030153 0.006224 -0.022202 -0.005988 0.026624 0.032722 -0.035992 -0.042325 -0.066914 -0.005971 0.037765 0.050906 0.017157 -0.025716 -0.007907 -0.027398 0.014082 -0.027062 -0.027514 -0.006610 0.000774 0.021641 -0.031486 -0.051435 -0.069386 -0.069595 -0.022297 -0.042609 0.012134 0.028951 0.014143 0.004096 0.020551 0.032262 -0.001046 -0.006979 -0.017213 0.026784 -0.062003 -0.036635 0.039187 -0.005348 -0.037037 0.047339 -0.025902 0.017753 0.040860 -0.021308 0.021151 0.039295 0.027224 -0.030785 0.023023 -0.021819 0.094935 0.006052 0.032795 0.026003 0.046988 -0.012415 0.014458 0.015216 -0.006296 -0.053822 -0.002767
sent_75 0.033760 -0.038432 0.008708 0.031043 0.001428 -0.053719 -0.025431 -0.036676 0.016668 -0.055401 -0.059797 -0.048944 0.050667 0.031979 0.021075 -0.029299 -0.007035 0.039578 -0.035288 0.003495 -0.050707 0.067983 0.051043 0.059384 0.056966 0.013963 -0.049817 0.028289 0.055137 -0.032944 0.018422 0.026638 -0.043588 -0.006477 0.005060 0.001855 -0.067843 0.014444 -0.026674 0.051879 -0.012548 -0.031304 0.032161 -0.045767 0.018291 0.038889 -0.018080 -0.073767 0.005715 -0.011762 -0.059509 -0.024064 -0.000316 -0.003901 0.033765 -0.055959 0.041330 0.015175 -0.025692 -0.039559 -0.015049 -0.010017 -0.042537 0.026161 0.005572 0.037611 0.017279 0.044781 0.053663 -0.019895 0.016264 -0.082912 0.039483 -0.006225 -0.051411 -0.019819 0.023078 0.023376 0.000309 0.009635 0.066433 0.038942 -0.004658 0.053420 0.011230 0.092088 0.002292 0.050258 -0.002860 0.061930 0.024688 -0.017118 0.040563 -0.026379 -0.017690 0.015021 0.035585 -0.046992 -0.019482 -0.003723
sent_76 0.057293 -0.119799 0.028050 0.047343 -0.030471 0.117465 -0.114882 0.007423 -0.018894 -0.021417 -0.105835 0.009771 0.057002 -0.108621 -0.028643 -0.074472 -0.076575 -0.082439 -0.126528 0.026048 -0.061343 -0.066795 -0.010548 -0.034345 0.010704 -0.026730 0.091881 0.093961 0.012319 -0.088445 -0.120314 0.056380 0.029406 -0.077350 0.009371 -0.019534 -0.070694 0.051283 -0.000441 -0.063612 0.100175 0.003044 0.088360 0.021017 0.064470 0.006387 -0.023262 -0.076314 -0.058402 0.001398 0.011450 -0.095411 0.065400 -0.089107 0.076270 -0.066280 -0.007334 0.011059 -0.044462 -0.018984 0.066747 0.028618 0.014550 0.003824 -0.021084 -0.039742 0.014464 0.011908 -0.044876 -0.089896 0.063199 -0.014791 0.080170 0.001538 -0.013631 0.093521 0.081944 0.054510 -0.053022 0.151101 0.101971 -0.009042 0.089504 0.135373 0.042977 0.040804 0.039975 0.084341 0.083350 -0.092133 -0.017995 -0.070180 0.014505 -0.149845 -0.087012 0.025569 -0.005353 -0.003054 -0.076136 -0.066696
sent_77 0.030715 0.049560 0.033188 0.003370 -0.033330 -0.108150 0.055223 -0.029830 -0.010675 -0.014300 0.024491 0.000662 0.041581 0.037645 -0.061042 -0.025493 -0.086966 -0.022295 0.068656 -0.007105 -0.088037 0.085886 -0.055818 -0.043119 0.037201 0.081813 -0.018675 0.101066 0.110666 -0.021229 0.049669 -0.032651 0.012242 0.051274 -0.016403 -0.038962 0.049543 0.028750 -0.012670 0.061203 0.019712 0.003071 -0.060421 -0.104976 -0.019371 0.007418 0.076258 -0.067131 0.085271 0.006519 -0.040127 -0.055519 0.016490 0.023125 0.017030 -0.024140 0.065325 0.042317 -0.076113 -0.075717 -0.050286 0.066013 -0.121477 0.013930 0.017229 -0.050076 0.029679 0.076671 0.043929 -0.013557 0.000739 0.050940 0.044194 0.017351 -0.022298 0.014276 0.064899 -0.074743 0.059574 -0.034297 0.016832 0.024336 -0.021509 0.073807 0.042044 0.022930 -0.013100 0.026440 0.007842 0.042687 -0.042966 -0.009191 0.056801 0.062361 -0.112946 -0.019512 0.084136 0.006966 -0.083904 -0.037419
sent_78 0.007437 -0.010388 0.019647 -0.011707 0.022794 -0.028930 -0.021425 0.009173 -0.004195 0.010953 -0.012501 -0.016602 -0.006927 0.005026 0.014582 -0.014815 -0.000609 -0.003251 0.008141 -0.004940 -0.003549 -0.000736 0.027149 0.016360 0.010952 0.028700 0.028972 0.003107 0.005978 -0.001650 0.010640 0.022726 0.014922 -0.017348 -0.021625 0.001544 -0.011166 0.010182 -0.010214 0.003497 0.000618 -0.005034 0.015827 -0.009544 -0.011759 -0.001082 0.026867 0.011458 -0.007353 -0.010912 -0.008737 -0.001982 -0.009156 -0.016181 0.001215 0.010438 0.008708 -0.013525 0.009839 -0.016716 -0.011907 -0.015084 -0.005896 0.016259 0.021818 0.010695 0.001433 -0.011053 0.020469 0.010244 -0.008209 -0.001349 0.023734 -0.009886 -0.044622 -0.001305 -0.009757 0.023788 -0.000962 -0.000307 -0.009506 0.010797 -0.012452 -0.016359 0.004791 0.013009 0.000150 -0.024671 -0.024258 0.017345 -0.010955 0.010534 0.014615 0.002810 0.013693 0.007428 -0.003207 0.014639 -0.011679 0.016859
sent_79 0.025966 0.006435 0.012147 -0.015016 0.007900 -0.040304 0.006457 -0.001499 0.005188 0.005993 0.019982 -0.005700 0.013998 0.018895 0.011706 -0.020045 -0.001158 -0.005869 0.032357 -0.005829 0.008226 0.008282 0.002545 0.000737 -0.000628 0.012967 0.000517 0.007450 0.012882 0.010449 0.019749 -0.011427 0.000215 -0.010642 0.013010 0.015651 0.013738 0.009510 0.000633 0.012614 -0.013487 0.003572 -0.014563 -0.012979 -0.023106 0.015602 0.012144 -0.005363 0.015988 0.009810 -0.014133 -0.002782 -0.013733 0.011280 -0.011580 0.005621 -0.005885 -0.006522 -0.001388 -0.005664 -0.027298 -0.012037 -0.000125 0.001345 0.009595 0.012305 -0.002561 0.007292 0.018902 0.015347 -0.014881 0.015522 0.013404 0.004199 -0.008360 -0.005831 0.014930 -0.008562 0.030986 -0.016582 0.005716 -0.008031 -0.026008 -0.014194 -0.000111 0.003816 -0.004107 0.024616 -0.007301 0.023707 0.020968 0.006328 0.022873 0.020903 -0.017102 -0.008879 0.007509 -0.001054 -0.002419 0.012312
sent_80 0.004541 0.013474 -0.013204 -0.043018 -0.039922 0.006870 -0.035241 0.028369 0.045028 0.022372 -0.078500 -0.014444 -0.048057 -0.025254 0.001302 0.052811 -0.017835 0.048533 -0.038817 -0.026466 -0.014978 -0.057423 0.015327 -0.010096 -0.000731 -0.014963 -0.036563 -0.045754 0.066348 0.002833 0.060419 0.072799 -0.001499 -0.045939 -0.002026 -0.004841 0.014299 -0.044415 -0.010032 -0.047125 0.031406 -0.020122 -0.032414 0.023093 0.003093 0.020127 0.033848 0.023438 -0.038384 -0.024092 -0.021063 -0.023587 -0.055290 -0.029009 0.009436 0.014610 0.004842 -0.013023 -0.024417 -0.064939 -0.036465 0.008128 -0.069390 0.088560 0.028343 0.006922 -0.001078 -0.044254 0.045061 0.016919 0.043710 -0.092067 -0.010092 0.018925 -0.075762 0.118070 -0.064917 0.009881 0.026931 0.025371 0.038691 0.021437 0.022012 -0.003755 0.013620 0.013413 -0.028200 -0.024026 0.014679 0.096351 0.041042 0.029500 -0.032083 -0.042798 0.009681 0.054704 -0.023998 -0.088807 -0.038784 0.033592
sent_81 0.065299 0.083663 0.048233 -0.078326 -0.015802 -0.105235 0.023803 0.032412 -0.006081 0.042872 -0.024461 -0.055034 -0.003024 0.111018 -0.064684 0.033508 -0.089405 -0.041569 0.036367 -0.053731 -0.105103 0.000907 0.042699 -0.074950 -0.028357 0.121885 -0.017204 -0.017637 0.143428 -0.028111 0.102095 0.028854 0.019875 0.010752 -0.008144 -0.054818 -0.036366 -0.015826 -0.025114 0.017662 0.039428 -0.008357 -0.062693 -0.091846 0.010896 0.059362 0.101908 -0.021343 0.035498 -0.028752 -0.008152 -0.039743 -0.081204 -0.062547 -0.018647 0.008003 0.051343 -0.040982 -0.113412 -0.105192 -0.058902 0.065590 -0.109799 0.047082 0.019525 0.046092 0.042826 0.033600 0.104401 -0.072914 -0.000220 0.089629 0.007445 -0.040089 -0.046803 0.105803 0.012040 -0.051092 0.041371 -0.004799 -0.042433 0.104599 0.006797 0.070719 0.086748 0.098033 -0.042111 -0.017749 0.000447 0.075284 -0.034716 0.036406 0.041912 0.061783 -0.025915 0.030498 0.109465 -0.010265 -0.131730 -0.012154
sent_82 0.095592 0.082020 0.065499 -0.087699 -0.012063 -0.144671 0.022614 0.029245 -0.010466 0.046667 -0.035571 -0.056866 0.011359 0.118865 -0.076071 0.017395 -0.099880 -0.042164 0.036095 -0.044098 -0.111941 -0.003532 0.034064 -0.088316 -0.023433 0.130236 -0.013406 -0.002207 0.162166 -0.041018 0.100269 0.018444 0.032261 0.002619 -0.013508 -0.057388 -0.054162 -0.006619 -0.050177 0.019545 0.046426 0.005736 -0.069448 -0.106379 0.008095 0.075534 0.122864 -0.033508 0.025679 -0.032311 0.008280 -0.049284 -0.067613 -0.064930 -0.028154 -0.003999 0.054089 -0.061446 -0.134950 -0.150216 -0.045758 0.076686 -0.132398 0.030653 0.034724 0.066368 0.057806 0.043684 0.099098 -0.095163 0.010492 0.108557 0.021577 -0.047504 -0.039583 0.100670 0.026547 -0.043569 0.052669 0.023527 -0.037510 0.120036 0.038202 0.092475 0.099444 0.093460 -0.040683 -0.008675 0.022392 0.083465 -0.055843 0.024169 0.061784 0.092151 -0.042085 0.044655 0.115370 0.001897 -0.160876 -0.025548
sent_83 0.005332 0.038417 0.004208 -0.051171 -0.000155 0.003607 0.045370 -0.007641 0.008494 -0.010529 -0.046048 -0.061416 -0.033582 0.035290 -0.016197 0.041191 -0.009392 0.026738 -0.023225 -0.058309 -0.070492 -0.006465 0.039048 0.006054 -0.009859 0.025384 -0.057171 -0.029246 0.039811 -0.003827 0.038623 0.039174 -0.007851 0.023334 0.002604 -0.011969 -0.072497 -0.023274 -0.004341 -0.013742 0.026138 -0.039435 -0.015838 -0.014197 0.021697 0.023780 0.027356 0.007506 0.002441 -0.004739 0.009485 -0.028261 0.000300 -0.043297 -0.001305 -0.012620 0.048441 0.002326 0.006589 -0.033092 -0.041400 0.030887 -0.023479 0.023972 0.032012 0.022378 0.012465 -0.008448 0.039642 -0.032967 0.009006 0.019048 0.021989 -0.051602 -0.032418 0.060536 0.005649 -0.031039 -0.024060 0.005143 -0.006453 0.060918 -0.002384 0.024943 0.029286 0.051454 -0.020594 -0.015024 0.021293 0.061356 -0.016764 0.022465 0.007270 -0.001525 -0.015672 0.037559 0.053089 -0.030373 -0.030717 0.031322
sent_84 -0.016660 -0.006003 0.006948 0.018808 -0.010426 0.008061 -0.018280 -0.017818 -0.017806 0.005484 -0.008114 0.002703 0.001012 0.003078 0.002505 0.010308 -0.006927 -0.025431 -0.006021 0.041507 -0.009672 0.011026 0.012959 0.030412 0.002127 -0.001985 0.014093 0.003486 -0.018907 -0.008720 -0.006793 -0.034549 -0.013010 0.003699 -0.017139 -0.003720 -0.015280 -0.007306 0.003556 0.011513 0.012580 0.007371 0.023318 0.002199 0.017248 -0.014712 -0.015283 0.022004 -0.010667 0.012167 -0.021011 0.051157 -0.000685 -0.019105 -0.008980 -0.000938 -0.010912 0.002268 0.003567 -0.008378 0.029015 -0.013521 -0.021936 0.012546 -0.010103 0.005098 0.012746 0.015939 0.035022 0.003471 0.009937 -0.017123 -0.016197 0.002380 0.008324 0.000248 0.003112 0.017695 0.022270 0.013284 -0.001326 0.010983 0.000067 0.020793 0.023992 0.018571 -0.007628 0.009865 -0.012217 0.014296 0.027868 -0.003491 0.004953 -0.013983 0.024849 -0.019688 -0.012435 -0.005077 -0.004823 -0.037729
sent_85 -0.029701 0.028722 -0.079506 0.161279 -0.116680 -0.048181 -0.153742 -0.065848 0.026421 0.145711 -0.054841 0.035603 -0.023414 -0.074284 0.007893 -0.030774 -0.028139 -0.078747 -0.073343 0.126944 0.031205 0.025288 0.074718 0.119365 -0.024618 -0.068152 0.002230 0.111829 0.001364 -0.081696 0.012099 -0.048375 0.037215 -0.151557 -0.041658 -0.080621 -0.035792 0.082193 0.051710 -0.016913 0.010358 0.029127 0.108634 0.016119 0.124473 0.025738 -0.029181 0.105247 -0.027793 -0.006152 -0.071880 0.083793 -0.084227 -0.101172 0.061604 0.041770 -0.085815 0.001565 -0.102368 -0.162706 0.179256 -0.050805 -0.225622 0.124701 -0.044146 0.040591 0.009089 0.014823 0.142372 0.077589 0.033715 -0.139842 -0.065382 0.037020 0.016795 0.064428 0.100642 -0.062707 0.053671 0.084152 0.037411 0.056227 0.067714 0.016513 0.071308 0.061154 -0.008890 0.095180 0.062961 0.101173 0.132045 -0.003665 0.062527 -0.055900 -0.019903 -0.094162 -0.077473 -0.036374 -0.183265 -0.053442
sent_86 -0.001913 0.006511 -0.071534 0.155952 -0.113812 -0.063417 -0.170478 -0.060956 0.024588 0.148843 -0.083834 0.031330 -0.011618 -0.072513 0.002102 -0.021485 -0.038928 -0.071054 -0.088393 0.147378 0.029666 0.012358 0.078724 0.129921 -0.033451 -0.075323 0.004953 0.116282 0.003887 -0.105121 -0.015890 -0.056390 0.038853 -0.168021 -0.051416 -0.078070 -0.060560 0.084450 0.040598 -0.008679 0.010970 0.036191 0.114030 0.008079 0.131393 0.029348 -0.010548 0.109659 -0.042425 -0.015343 -0.067938 0.096361 -0.074682 -0.115070 0.054116 0.042856 -0.090435 -0.021547 -0.108900 -0.197197 0.185503 -0.060975 -0.221457 0.112211 -0.040475 0.051113 0.006243 0.030654 0.125024 0.070861 0.054212 -0.143180 -0.068311 0.019808 0.015150 0.057673 0.104323 -0.063531 0.048556 0.128298 0.062942 0.063747 0.102425 0.039570 0.083519 0.059201 -0.013720 0.112404 0.071312 0.099438 0.129028 -0.016150 0.074503 -0.050736 -0.017680 -0.096980 -0.092889 -0.027266 -0.200729 -0.071580
sent_87 0.033382 -0.023289 0.049773 0.015342 -0.019625 -0.072742 -0.000329 -0.026125 0.014746 -0.073300 -0.078000 -0.081395 0.111253 0.065486 0.035660 -0.027835 0.019421 0.075821 -0.091406 0.024067 -0.049254 0.118182 0.069557 0.101686 0.069759 0.020384 -0.083758 -0.009839 0.054317 -0.012541 0.034148 0.048330 -0.100663 -0.052640 -0.009149 0.007770 -0.121693 0.024546 -0.043688 0.071582 -0.015255 -0.054683 0.045284 -0.077351 0.001944 0.092042 -0.047918 -0.105030 0.014384 -0.020459 -0.063583 -0.030196 -0.011286 0.010931 0.055182 -0.072303 0.112058 0.048333 -0.017477 -0.015525 -0.008705 -0.040107 -0.036678 0.013175 -0.042464 0.041673 -0.006781 0.030954 0.057097 -0.082950 -0.024597 -0.070958 0.052362 -0.022535 -0.086693 -0.002733 0.058026 -0.031732 -0.008561 0.020291 0.093264 0.061154 0.000647 0.031879 -0.033830 0.113702 0.037929 0.079238 -0.018718 0.070766 0.029039 -0.008921 0.046011 -0.035972 0.001582 0.036792 0.084664 -0.046372 -0.013321 -0.003603
sent_88 0.011169 0.019376 0.015465 -0.050208 -0.008075 -0.000607 -0.020774 0.027599 0.024889 0.007790 -0.044003 -0.006124 -0.011398 0.023405 -0.003750 0.010023 -0.015889 0.008332 -0.009937 -0.007120 -0.013661 -0.027049 0.042694 0.024788 -0.028810 0.042196 -0.037565 -0.027388 0.015114 -0.009751 0.008736 0.016806 -0.006854 -0.013050 -0.014662 0.004092 -0.023715 -0.022050 -0.009584 0.005404 0.027978 -0.022043 0.007852 -0.026602 0.019940 0.016302 0.020300 0.027384 -0.028876 -0.011035 -0.027587 0.019199 -0.027699 -0.043544 -0.005821 0.021053 -0.007037 -0.024111 -0.024061 -0.042415 -0.008688 -0.012419 0.007027 0.013761 0.016023 0.027878 0.002971 -0.002157 0.007330 -0.002728 0.018787 -0.019954 -0.000957 -0.024736 -0.040992 0.046407 -0.027606 -0.000177 0.001136 0.019332 0.010016 0.040210 -0.011090 0.022223 0.025611 0.017161 -0.012379 0.006881 -0.019550 0.049097 0.020707 0.030920 -0.001973 -0.006245 0.023412 0.019977 0.006079 -0.023910 -0.012594 -0.002448
sent_89 -0.000787 0.063109 -0.012922 -0.052818 -0.034046 -0.064891 -0.024446 0.067112 0.018166 0.026604 0.018846 -0.044692 -0.010105 0.088136 -0.018768 0.011569 -0.004014 0.021854 0.033521 -0.026218 -0.035709 -0.020174 0.032114 -0.002303 0.002844 0.064909 -0.059488 -0.022603 0.027470 -0.004972 0.034839 0.014979 0.029625 -0.009298 0.008073 -0.014023 -0.019185 -0.017736 0.028795 0.046382 -0.010402 -0.006875 -0.076744 -0.016339 0.010488 0.008402 0.029910 0.010794 -0.017114 -0.043657 0.003613 -0.006934 -0.028307 -0.040132 -0.012779 -0.002422 -0.023744 -0.041644 -0.014197 -0.091850 -0.070090 -0.027039 -0.017458 0.051285 0.018238 0.004935 0.026729 -0.001037 0.075504 -0.006522 -0.004325 0.018587 0.051555 -0.020650 -0.066554 0.042208 -0.005053 -0.003778 0.035323 -0.006311 0.003612 0.038485 -0.011652 0.014678 -0.002615 0.028320 -0.016927 -0.014201 -0.020193 0.085962 0.043127 0.047402 0.017815 0.006360 0.018750 0.012913 0.042464 -0.049706 -0.056790 0.052036
sent_90 0.013001 0.036096 0.032524 -0.064655 0.004783 -0.059837 -0.020062 0.071151 0.036791 0.043919 -0.052335 0.009553 0.007362 0.060233 -0.032270 0.012768 -0.047391 0.036579 0.004185 0.009332 -0.061112 -0.022267 0.035023 -0.011038 -0.086099 0.052888 -0.024219 -0.018566 0.045089 -0.014447 0.033168 0.004699 -0.027885 -0.040122 -0.005886 0.006206 -0.010668 -0.038801 -0.036631 0.025528 0.036162 0.004508 -0.030803 -0.026990 -0.002339 0.010157 0.076349 -0.000146 -0.026096 -0.036477 0.009033 0.013106 0.006759 -0.058489 -0.046575 0.028192 0.000574 -0.043365 -0.057227 -0.092260 -0.008735 -0.039403 -0.011540 0.025371 0.034435 0.003809 0.019035 -0.011769 -0.015257 -0.003995 0.028889 0.002409 -0.031787 -0.029914 -0.049560 0.062059 -0.012810 -0.009635 -0.002314 0.020295 0.018766 0.030135 0.053004 0.024919 0.050706 0.003419 0.010583 -0.008416 -0.008884 0.073088 0.002674 0.039822 -0.018945 0.025649 0.008743 0.050623 -0.018619 0.007475 -0.022425 -0.016748
sent_91 0.027868 0.020123 0.006183 0.007384 -0.013782 -0.017230 -0.018282 0.030910 0.009748 -0.006679 -0.016829 0.015635 0.011845 0.004413 0.006390 -0.009669 -0.029516 0.015831 0.003630 0.013145 0.026303 -0.001026 0.005438 0.029807 0.009641 0.029350 -0.032214 -0.006250 0.028397 0.018798 0.022112 0.002205 0.003514 -0.047417 -0.014857 -0.000329 -0.009436 -0.011118 -0.025553 0.007717 0.000907 -0.027269 0.021339 -0.035805 0.008673 0.030617 -0.007837 -0.000933 0.005028 0.010103 -0.034781 0.001717 -0.026182 -0.010289 -0.001754 0.013643 0.008240 -0.006555 -0.009256 -0.005013 -0.013104 -0.021002 0.007783 -0.007527 -0.001919 0.003119 -0.009022 -0.008586 0.010027 -0.011238 0.019024 -0.024460 0.012026 0.012996 -0.003455 0.008310 -0.007020 -0.013678 0.016016 0.009847 0.038863 0.004103 -0.005330 0.017553 -0.012691 0.008816 -0.014108 0.019944 -0.031716 0.014211 0.009666 0.014058 -0.021203 -0.006868 0.016911 -0.008978 0.014272 -0.033463 -0.013222 0.008276
sent_92 0.061851 0.022907 0.008477 0.004511 -0.020594 -0.038294 -0.034273 0.047499 0.021527 -0.005720 -0.048747 0.019790 0.016231 0.003813 -0.002501 -0.020923 -0.054800 0.024433 0.005447 0.028165 0.051466 -0.014021 0.005353 0.042064 0.000346 0.031530 -0.040811 0.002363 0.041308 0.021962 0.023626 -0.004533 0.006427 -0.074546 -0.025388 0.002504 -0.025650 -0.012852 -0.046228 0.000273 0.004284 -0.041839 0.030690 -0.054824 0.016062 0.048901 0.005767 0.005091 -0.009672 0.009897 -0.053233 0.005921 -0.036778 -0.012172 -0.012067 0.018940 0.011574 -0.017586 -0.015303 -0.025813 -0.008047 -0.040750 0.001996 -0.017692 0.011248 0.013796 -0.014358 -0.000377 0.006216 -0.016787 0.035525 -0.041543 0.027083 0.004839 -0.012721 0.012453 -0.016729 -0.018151 0.033089 0.033199 0.061702 0.010879 0.019828 0.033712 -0.013069 -0.000043 -0.017548 0.039733 -0.037566 0.017630 0.008254 0.010019 -0.030195 -0.009552 0.018733 -0.006022 0.019860 -0.044007 -0.029503 0.004751
sent_93 -0.088225 0.046241 -0.043111 0.060724 -0.017297 -0.077360 0.025861 0.000756 -0.001603 -0.055519 0.013134 -0.078212 -0.010841 0.055238 0.025862 -0.044296 0.038880 0.014781 -0.027852 0.058203 -0.038480 -0.002323 0.065894 0.037225 0.011416 -0.019207 -0.067999 0.041457 -0.007981 -0.064331 -0.041321 -0.058034 0.040901 -0.019683 0.029060 -0.067246 -0.077834 -0.018882 0.013196 -0.004482 -0.033070 -0.052375 0.000851 -0.019572 0.061785 0.001824 -0.012668 0.025191 0.023347 0.013247 -0.006307 -0.054441 0.043140 -0.047371 0.020827 -0.061230 0.068710 -0.018685 0.045070 -0.066293 -0.000634 -0.075955 -0.072782 0.002806 0.016555 0.003837 0.020919 0.033520 0.037944 -0.025965 0.018726 0.015584 0.053431 0.007267 -0.025666 0.016154 0.020156 -0.027621 0.006230 0.078509 0.052621 0.050773 0.063640 0.048731 -0.037702 -0.006574 -0.001656 -0.027514 -0.021176 0.073416 0.031666 0.031470 0.067595 -0.079989 -0.049191 -0.049704 0.044474 -0.001970 -0.004473 0.128333
sent_94 0.009359 -0.022787 -0.012347 0.056132 0.016155 0.015292 -0.039976 0.044261 0.003651 0.004156 0.024946 0.023976 0.022778 0.030523 0.029904 -0.019101 -0.020335 0.000506 -0.030448 -0.010886 0.008060 -0.021476 -0.000267 0.034815 0.029570 0.057179 0.004731 0.038738 0.016419 -0.020963 0.006677 0.035002 0.019816 -0.044798 0.046052 0.015073 -0.044686 0.031294 -0.035762 -0.008121 -0.019079 0.010118 0.049299 -0.043035 0.053631 0.018855 0.008019 0.030168 -0.027225 0.015109 -0.050710 0.037628 0.046826 -0.042417 -0.008934 -0.025215 0.000222 -0.043482 0.018651 -0.047867 0.027288 -0.073294 0.001881 -0.006672 0.047139 0.006197 0.013903 0.027011 -0.005429 -0.045379 -0.008610 -0.008956 0.051936 -0.020398 -0.042245 0.005407 -0.025949 0.017527 -0.016589 -0.026481 -0.000607 0.021385 -0.009611 -0.003028 0.052776 0.014816 0.001129 0.031980 -0.015381 0.036423 0.059041 0.037861 0.050472 -0.023053 -0.009375 -0.023621 0.012060 -0.043402 0.052897 -0.008488
sent_95 0.006220 0.013544 0.007696 0.026945 0.014496 0.005745 -0.013473 0.034930 -0.007229 0.015422 -0.020866 0.010081 0.019230 0.005869 -0.002561 -0.011951 -0.022384 0.002158 -0.024960 -0.045991 0.022850 -0.032544 -0.012684 0.019700 0.007716 0.017784 -0.037668 0.015768 -0.004759 0.001630 -0.005956 -0.010637 -0.015821 -0.023425 0.022987 -0.017647 -0.031211 0.003713 -0.024099 -0.025062 -0.013068 -0.010745 0.049861 -0.003677 0.029213 0.002289 -0.005824 0.019557 -0.000047 0.019745 -0.029976 0.013636 0.019853 -0.047250 -0.028742 0.013980 0.004054 -0.028400 0.010016 -0.003874 0.014275 -0.028222 0.043053 -0.018430 0.030555 -0.000972 -0.001494 0.000644 -0.016312 -0.007704 -0.021288 0.004027 0.041546 -0.026166 0.014858 0.007487 0.001633 -0.016030 -0.010309 -0.017228 0.030320 0.013712 0.012912 0.024734 0.039680 0.031435 -0.020162 0.020300 -0.013350 0.007966 0.038232 0.022296 0.018477 -0.029261 -0.005448 -0.049630 -0.003330 -0.026349 0.010766 -0.021716
sent_96 -0.046358 0.106154 -0.087417 0.047881 -0.044572 -0.028489 0.086576 0.001144 0.030871 -0.036782 0.020008 -0.137098 -0.036232 0.073994 -0.017575 0.026516 0.012993 0.032649 0.015925 -0.006097 -0.025599 -0.020947 0.083338 0.030943 0.025126 0.047188 -0.069876 0.053217 0.053410 0.006734 -0.018648 0.019822 0.054161 0.002307 0.057228 -0.014989 -0.092195 -0.000398 0.053055 -0.043764 0.020008 -0.062678 -0.036693 0.007389 0.083451 -0.017400 0.019899 0.041856 0.023268 -0.013662 0.033305 -0.062326 -0.007779 -0.043211 0.038007 -0.015340 0.046327 0.024355 -0.023415 -0.029526 -0.027874 -0.005769 -0.001941 0.031437 0.032508 -0.011065 0.019477 0.004492 0.086484 -0.051943 0.043914 0.037800 0.065062 -0.066612 -0.033130 0.031672 0.038755 -0.027416 -0.043870 0.074088 0.024325 0.126842 0.031018 0.005186 0.007304 0.054388 -0.032979 -0.007565 0.039440 0.060936 -0.012465 -0.005413 0.027644 -0.065086 -0.052474 -0.022602 0.066793 -0.056631 -0.048646 0.127355
sent_97 -0.019022 0.132722 -0.077611 0.037465 -0.050014 -0.038486 0.063972 0.041497 0.054699 -0.017601 0.001882 -0.148738 -0.035004 0.095276 -0.035010 0.031149 0.024029 0.070890 0.038331 0.010551 -0.036592 -0.036847 0.101267 0.031391 0.002187 0.057863 -0.062637 0.028663 0.060549 -0.006029 -0.013073 0.015903 0.045837 -0.010327 0.054118 0.008703 -0.113740 -0.025864 0.049549 -0.068035 0.026096 -0.073130 -0.049532 0.007193 0.081364 0.000570 0.034889 0.048362 -0.012687 -0.034505 0.063618 -0.061457 0.002902 -0.082233 0.031839 -0.010616 0.038254 -0.010867 -0.036798 -0.070668 -0.030086 -0.023629 0.016487 0.041873 0.048155 -0.017577 0.033244 -0.006993 0.059864 -0.045714 0.065049 0.021828 0.049442 -0.090470 -0.068008 0.039931 0.033605 -0.006005 -0.045902 0.109408 0.044967 0.130080 0.056142 0.010760 -0.005980 0.046906 -0.037880 -0.011663 0.045341 0.083353 -0.019856 0.006823 0.012278 -0.066867 -0.029175 0.013504 0.045665 -0.049382 -0.058949 0.127404
sent_98 0.010773 0.008349 -0.000572 -0.006320 -0.024782 -0.005781 -0.035488 0.019795 0.006804 0.021022 0.005849 -0.017253 0.031473 0.010498 0.031004 -0.023015 0.038865 0.021987 -0.009839 0.008123 0.001550 0.045057 0.075120 -0.026325 -0.034940 0.004479 -0.017030 0.001069 -0.042284 -0.036777 -0.013235 0.007594 0.001066 -0.002940 0.029694 -0.043194 -0.068942 -0.013786 0.041738 0.011520 -0.059872 0.000570 0.019093 -0.000722 -0.016621 0.003078 -0.018555 -0.048552 0.011685 0.014935 0.004666 -0.019980 -0.033520 -0.063792 0.017887 0.021867 0.005783 -0.022153 0.028799 -0.000293 0.028514 -0.017025 0.005752 -0.017015 0.023923 0.013128 0.037137 -0.018015 0.001473 0.054205 -0.011424 0.046851 0.011427 0.021963 -0.060418 0.026900 0.016926 0.015637 0.021163 0.037019 0.006606 0.031574 0.015520 -0.018433 -0.041596 -0.006964 0.007292 -0.039750 0.017946 0.006797 -0.016371 -0.021020 0.040355 -0.033330 0.055350 -0.047483 0.027217 -0.001848 0.017675 0.031441
sent_99 0.021174 -0.049367 0.019014 0.006409 -0.006352 -0.031790 0.000945 -0.002674 0.037394 -0.103353 -0.038279 -0.047191 0.092746 0.089222 0.042545 -0.033890 -0.010677 0.066005 -0.020028 0.037052 -0.068496 0.081729 0.052621 0.082246 0.049207 0.002446 -0.046603 0.014899 0.034463 -0.007497 -0.000099 0.005021 -0.057160 -0.006523 0.033272 0.026648 -0.080971 0.010614 -0.011547 0.093634 0.002075 -0.040372 0.049515 -0.058628 0.039096 0.034319 -0.050487 -0.099032 0.008299 0.001844 -0.076151 -0.015210 0.021393 0.013986 0.044236 -0.077695 0.043733 0.022576 -0.028139 -0.010641 -0.022910 -0.096969 -0.032284 0.026313 0.024858 0.018154 0.026172 0.030239 0.008649 -0.018534 -0.007656 -0.085437 0.039696 -0.039014 -0.080328 -0.028958 0.027595 0.030611 -0.010324 -0.000365 0.077981 0.031354 -0.022935 0.062499 0.026172 0.085927 0.031155 0.073547 -0.011453 0.083125 0.023396 -0.029681 0.031595 -0.021366 0.011587 0.015693 0.045535 -0.050534 0.009550 -0.008571
sent_100 -0.001842 -0.024064 -0.000568 0.008925 0.005193 0.006157 0.003999 0.016151 -0.012088 0.011588 -0.014708 0.015892 0.019292 0.007784 0.003835 0.013495 -0.009753 -0.006327 -0.011691 0.007244 0.036836 -0.044238 -0.007458 -0.005391 -0.006048 0.008304 0.005021 0.008192 0.006121 0.021703 -0.002432 -0.010259 -0.007040 -0.008257 -0.003129 -0.008537 0.004277 -0.016169 -0.018534 -0.027283 0.001159 -0.010843 0.017971 0.003217 -0.001025 -0.001636 0.022793 0.015165 -0.011079 0.027100 -0.016873 0.015572 -0.011060 -0.010576 -0.004817 0.001643 0.025492 -0.010361 0.011350 -0.009608 0.006680 -0.016665 0.005694 -0.011248 0.028638 0.004882 -0.013381 -0.010017 0.005079 -0.001773 0.010614 -0.000924 0.004364 0.001187 0.007271 0.034219 -0.020797 0.000162 0.020683 0.003318 0.006579 0.012231 0.005091 0.008190 0.004896 -0.000161 -0.032863 0.002452 -0.016942 0.009632 0.001242 0.004159 0.004322 -0.012535 -0.009593 -0.026743 -0.012033 -0.019954 0.017489 -0.016311
sent_101 0.023813 0.023309 -0.003398 0.020056 -0.024389 -0.027628 -0.017919 0.035103 0.020909 -0.026552 -0.031556 0.010794 0.003149 0.001548 0.016688 -0.004164 -0.042058 0.018769 -0.012963 0.016241 0.025840 0.000452 0.012355 0.064119 0.008626 0.023715 -0.042327 -0.005937 0.038059 0.021708 0.023157 -0.000856 0.013206 -0.062572 -0.015268 -0.018545 -0.037816 -0.016081 -0.035830 0.003085 -0.005577 -0.055506 0.047017 -0.044494 0.032721 0.042540 -0.013699 0.004197 0.001118 0.025704 -0.050137 -0.013251 -0.027513 -0.022158 0.003383 0.014593 0.035934 -0.004470 0.012172 -0.004678 -0.010165 -0.045718 -0.000298 -0.008391 0.015843 -0.006508 -0.016183 -0.015187 0.020241 -0.024968 0.024724 -0.036417 0.034468 0.013754 -0.021128 0.037813 -0.011733 -0.026290 0.022729 0.010807 0.058824 0.009920 0.012028 0.026268 -0.011888 0.010781 -0.016110 0.017742 -0.048535 0.023465 0.014267 0.016771 -0.022717 -0.041321 0.013092 -0.025629 0.022247 -0.055320 -0.018261 0.029143
sent_102 -0.019421 0.009361 -0.015882 0.012809 -0.021476 0.013879 0.027965 0.003107 0.027265 -0.005186 0.037683 -0.009699 0.023352 0.003554 0.031348 0.025686 -0.003042 -0.002305 0.004306 0.009025 -0.011573 -0.029410 0.000766 -0.009676 -0.032526 -0.034470 0.004732 0.006054 0.052438 0.022923 0.020835 -0.007482 0.000565 -0.011309 0.050209 0.003380 0.023001 0.012492 -0.006025 -0.012598 -0.008068 0.007809 -0.008857 0.010122 0.011032 -0.009802 0.016573 0.006579 0.015361 0.002495 0.001050 0.003149 -0.019571 0.027508 0.007094 0.006383 -0.029807 -0.008333 -0.022919 0.020930 0.019718 -0.055939 -0.001795 -0.005485 0.024903 0.011565 -0.026051 -0.029689 -0.008883 -0.016835 -0.001128 -0.002748 -0.000627 0.030976 0.009738 0.044544 0.005332 -0.016664 -0.003927 -0.004724 -0.010856 0.009463 0.017475 -0.023821 0.047133 -0.001526 0.006854 0.044475 0.028925 0.026282 0.034528 -0.010981 -0.012626 -0.002134 -0.015526 0.003555 0.014677 -0.018264 0.020160 -0.003376
sent_103 -0.006762 -0.036659 -0.052611 0.059343 -0.090479 -0.081099 -0.084899 0.005824 0.049754 0.045127 0.019305 0.018611 -0.080244 -0.102935 0.038780 -0.000050 -0.168390 -0.046033 -0.070384 0.034193 -0.093383 -0.004500 -0.048071 0.000719 0.003389 -0.098492 0.009119 0.030016 0.063629 -0.041288 0.120308 0.074107 0.067929 -0.121042 0.081668 -0.089398 0.037869 -0.053745 -0.004116 -0.065567 0.009427 0.136480 0.010172 -0.006400 -0.099050 -0.037794 0.040472 -0.042090 0.024812 -0.065244 -0.041038 -0.109439 0.031415 -0.055571 -0.029850 0.013272 0.022138 -0.009773 -0.013297 -0.074314 0.010452 0.042276 -0.144538 0.142889 -0.021596 -0.010390 0.017070 -0.020996 0.077594 0.043056 0.044295 -0.066821 -0.052618 0.173187 -0.079077 0.174670 -0.061471 0.012005 0.031722 -0.026847 0.105039 -0.065121 0.039936 -0.015944 0.009156 -0.055010 -0.020997 -0.046716 -0.011808 0.087161 0.067095 0.085476 -0.034604 -0.065404 -0.057515 0.010611 -0.035207 -0.058253 0.027066 0.065174
